{"learner":{"attributes":{"best_iteration":"47","best_score":"0.6070201508700848","scikit_learn":"{\"_estimator_type\": \"classifier\"}"},"feature_names":["vix_spot","vix_zscore","vix_velocity_1d","vix_velocity_3d","vix_velocity_5d","term_slope","term_slope_zscore","term_curvature","spy_drawdown","spy_velocity","rv_iv_spread","vix_percentile","days_elevated","vvix","vix9d_vix_ratio","skew","vix_futures_volume","put_call_ratio","hy_spread_velocity","day_of_week","vix_spot_lag1","vix_spot_lag3","vix_spot_lag5","vix_spot_lag10","vix_spot_lag20","vix_zscore_lag1","vix_zscore_lag3","vix_zscore_lag5","vix_zscore_lag10","vix_zscore_lag20","term_slope_lag1","term_slope_lag3","term_slope_lag5","term_slope_lag10","term_slope_lag20","spy_drawdown_lag1","spy_drawdown_lag3","spy_drawdown_lag5","spy_drawdown_lag10","spy_drawdown_lag20","vvix_lag1","vvix_lag3","vvix_lag5","vvix_lag10","vvix_lag20"],"feature_types":["float","float","float","float","float","float","float","float","float","float","float","float","float","float","float","float","float","float","float","float","float","float","float","float","float","float","float","float","float","float","float","float","float","float","float","float","float","float","float","float","float","float","float","float","float"],"gradient_booster":{"model":{"cats":{"enc":[],"feature_segments":[],"sorted_idx":[]},"gbtree_model_param":{"num_parallel_tree":"1","num_trees":"98"},"iteration_indptr":[0,1,2,3,4,5,6,7,8,9,10,11,12,13,14,15,16,17,18,19,20,21,22,23,24,25,26,27,28,29,30,31,32,33,34,35,36,37,38,39,40,41,42,43,44,45,46,47,48,49,50,51,52,53,54,55,56,57,58,59,60,61,62,63,64,65,66,67,68,69,70,71,72,73,74,75,76,77,78,79,80,81,82,83,84,85,86,87,88,89,90,91,92,93,94,95,96,97,98],"tree_info":[0,0,0,0,0,0,0,0,0,0,0,0,0,0,0,0,0,0,0,0,0,0,0,0,0,0,0,0,0,0,0,0,0,0,0,0,0,0,0,0,0,0,0,0,0,0,0,0,0,0,0,0,0,0,0,0,0,0,0,0,0,0,0,0,0,0,0,0,0,0,0,0,0,0,0,0,0,0,0,0,0,0,0,0,0,0,0,0,0,0,0,0,0,0,0,0,0,0],"trees":[{"base_weights":[2.819456E-2,-5.495673E-1,9.535546E-1,-5.735386E-2,-1.629983E-1,6.765425E-2,1.887787E-2,1.8144809E-2,-3.4461625E-2],"categories":[],"categories_nodes":[],"categories_segments":[],"categories_sizes":[],"default_left":[0,0,0,0,0,0,0,0,0],"id":0,"left_children":[1,3,5,-1,7,-1,-1,-1,-1],"loss_changes":[1.6046604E1,3.9309402E0,1.9770336E0,0E0,3.724459E0,0E0,0E0,0E0,0E0],"parents":[2147483647,0,0,1,1,2,2,4,4],"right_children":[2,4,6,-1,8,-1,-1,-1,-1],"split_conditions":[-2.168596E-1,-1.2429914E0,3.371494E-1,-5.735386E-2,1.618448E-1,6.765425E-2,1.887787E-2,1.8144809E-2,-3.4461625E-2],"split_indices":[40,11,33,0,34,0,0,0,0],"split_type":[0,0,0,0,0,0,0,0,0],"sum_hessian":[2.7958233E1,1.7395279E1,1.0562954E1,5.958838E0,1.143644E1,5.3377724E0,5.2251816E0,5.7802663E0,5.656174E0],"tree_param":{"num_deleted":"0","num_feature":"45","num_nodes":"9","size_leaf_vector":"1"}},{"base_weights":[-1.0523016E-1,-5.3809214E-1,8.13422E-2,-6.672885E-2,-1.3170421E-1,-3.5575263E-2,2.8645758E-2],"categories":[],"categories_nodes":[],"categories_segments":[],"categories_sizes":[],"default_left":[0,0,0,0,0,0,0],"id":1,"left_children":[1,3,-1,-1,5,-1,-1],"loss_changes":[2.3518023E1,7.7941813E0,0E0,0E0,7.692104E0,0E0,0E0],"parents":[2147483647,0,0,1,1,4,4],"right_children":[2,4,-1,-1,6,-1,-1],"split_conditions":[2.7977484E-1,-1.5151334E0,8.13422E-2,-6.672885E-2,-2.0671977E-1,-3.5575263E-2,2.8645758E-2],"split_indices":[13,11,0,0,27,0,0],"split_type":[0,0,0,0,0,0,0],"sum_hessian":[2.9345495E1,2.4075794E1,5.269702E0,7.279176E0,1.6796618E1,9.286941E0,7.509677E0],"tree_param":{"num_deleted":"0","num_feature":"45","num_nodes":"7","size_leaf_vector":"1"}},{"base_weights":[7.645203E-2,-3.3326036E-1,7.828039E-2,-5.367253E-2,-2.4103466E-2,2.8253226E-2,-2.7661938E-2],"categories":[],"categories_nodes":[],"categories_segments":[],"categories_sizes":[],"default_left":[0,0,0,0,0,0,0],"id":2,"left_children":[1,3,-1,-1,5,-1,-1],"loss_changes":[1.7798712E1,5.086521E0,0E0,0E0,5.6783586E0,0E0,0E0],"parents":[2147483647,0,0,1,1,4,4],"right_children":[2,4,-1,-1,6,-1,-1],"split_conditions":[2.7977484E-1,-1.5151334E0,7.828039E-2,-5.367253E-2,3.460021E-1,2.8253226E-2,-2.7661938E-2],"split_indices":[13,11,0,0,32,0,0],"split_type":[0,0,0,0,0,0,0],"sum_hessian":[2.7115067E1,2.1820604E1,5.294461E0,5.605101E0,1.6215504E1,7.550963E0,8.664541E0],"tree_param":{"num_deleted":"0","num_feature":"45","num_nodes":"7","size_leaf_vector":"1"}},{"base_weights":[-3.5808242E-3,-4.8118394E-2,4.3076724E-1,9.922303E-3,6.471985E-2,2.9501209E-2,-2.697879E-2],"categories":[],"categories_nodes":[],"categories_segments":[],"categories_sizes":[],"default_left":[0,0,0,0,0,0,0],"id":3,"left_children":[1,-1,3,5,-1,-1,-1],"loss_changes":[1.2842768E1,0E0,7.5147314E0,5.1852922E0,0E0,0E0,0E0],"parents":[2147483647,0,0,2,2,3,3],"right_children":[2,-1,4,6,-1,-1,-1],"split_conditions":[-1.2429914E0,-4.8118394E-2,1.557282E-1,-3.6629716E-1,6.471985E-2,2.9501209E-2,-2.697879E-2],"split_indices":[11,0,43,23,0,0,0],"split_type":[0,0,0,0,0,0,0],"sum_hessian":[2.8715767E1,8.645693E0,2.0070074E1,1.4252258E1,5.8178163E0,6.9857144E0,7.266544E0],"tree_param":{"num_deleted":"0","num_feature":"45","num_nodes":"7","size_leaf_vector":"1"}},{"base_weights":[-4.34596E-2,-4.4278324E-1,7.470004E-2,2.4559163E-2,-7.3306066E-1,-1.0098749E0,1.7054677E-3,-6.0774785E-2,-2.7383903E-2],"categories":[],"categories_nodes":[],"categories_segments":[],"categories_sizes":[],"default_left":[0,0,0,0,0,0,0,0,0],"id":4,"left_children":[1,3,-1,-1,5,7,-1,-1,-1],"loss_changes":[1.9607365E1,7.2855206E0,0E0,0E0,4.358657E0,5.601635E-1,0E0,0E0,0E0],"parents":[2147483647,0,0,1,1,4,4,5,5],"right_children":[2,4,-1,-1,6,8,-1,-1,-1],"split_conditions":[2.7977484E-1,-4.9409112E-1,7.470004E-2,2.4559163E-2,2.188198E-1,-1.9345474E-1,1.7054677E-3,-6.0774785E-2,-2.7383903E-2],"split_indices":[13,24,0,0,24,12,0,0,0],"split_type":[0,0,0,0,0,0,0,0,0],"sum_hessian":[3.003045E1,2.4455648E1,5.574804E0,5.5528283E0,1.8902819E1,1.3754011E1,5.148808E0,8.241414E0,5.5125966E0],"tree_param":{"num_deleted":"0","num_feature":"45","num_nodes":"9","size_leaf_vector":"1"}},{"base_weights":[-0E0,-3.4151474E-1,7.1118064E-2,2.5418827E-2,-6.1883324E-1,-9.203616E-1,9.385515E-3,-5.694128E-2,-2.1996973E-2],"categories":[],"categories_nodes":[],"categories_segments":[],"categories_sizes":[],"default_left":[0,0,0,0,0,0,0,0,0],"id":5,"left_children":[1,3,-1,-1,5,7,-1,-1,-1],"loss_changes":[1.5210502E1,6.330509E0,0E0,0E0,5.04899E0,8.7710667E-1,0E0,0E0,0E0],"parents":[2147483647,0,0,1,1,4,4,5,5],"right_children":[2,4,-1,-1,6,8,-1,-1,-1],"split_conditions":[2.7977484E-1,-4.9409112E-1,7.1118064E-2,2.5418827E-2,1.7338914E-1,-3.8841975E-1,9.385515E-3,-5.694128E-2,-2.1996973E-2],"split_indices":[13,24,0,0,24,41,0,0,0],"split_type":[0,0,0,0,0,0,0,0,0],"sum_hessian":[2.952732E1,2.4477741E1,5.0495787E0,5.728368E0,1.8749372E1,1.3634827E1,5.1145473E0,8.287572E0,5.3472543E0],"tree_param":{"num_deleted":"0","num_feature":"45","num_nodes":"9","size_leaf_vector":"1"}},{"base_weights":[2.9603327E-2,-5.0641906E-1,7.744411E-1,5.0197034E-3,-8.220685E-1,6.34043E-2,5.660423E-3,-2.3002138E-2,-5.288142E-2],"categories":[],"categories_nodes":[],"categories_segments":[],"categories_sizes":[],"default_left":[0,0,0,0,0,0,0,0,0],"id":6,"left_children":[1,3,5,-1,7,-1,-1,-1,-1],"loss_changes":[1.1977635E1,3.4802012E0,3.8275404E0,0E0,3.541708E-1,0E0,0E0,0E0,0E0],"parents":[2147483647,0,0,1,1,2,2,4,4],"right_children":[2,4,6,-1,8,-1,-1,-1,-1],"split_conditions":[-3.4534845E-1,2.2737482E-1,5.544766E-1,5.0197034E-3,7.001193E-1,6.34043E-2,5.660423E-3,-2.3002138E-2,-5.288142E-2],"split_indices":[13,37,38,0,8,0,0,0,0],"split_type":[0,0,0,0,0,0,0,0,0],"sum_hessian":[2.7950909E1,1.6361904E1,1.15890045E1,5.723681E0,1.0638223E1,6.023301E0,5.565703E0,5.5248003E0,5.113423E0],"tree_param":{"num_deleted":"0","num_feature":"45","num_nodes":"9","size_leaf_vector":"1"}},{"base_weights":[4.4804405E-2,-3.1212315E-1,6.8749964E-2,-5.0176598E-2,7.83709E-3,2.1766244E-2,-2.5100593E-2],"categories":[],"categories_nodes":[],"categories_segments":[],"categories_sizes":[],"default_left":[0,0,0,0,0,0,0],"id":7,"left_children":[1,3,-1,-1,5,-1,-1],"loss_changes":[1.4261753E1,5.317253E0,0E0,0E0,3.915575E0,0E0,0E0],"parents":[2147483647,0,0,1,1,4,4],"right_children":[2,4,-1,-1,6,-1,-1],"split_conditions":[2.7772015E-1,-1.3337054E0,6.8749964E-2,-5.0176598E-2,4.8269522E-1,2.1766244E-2,-2.5100593E-2],"split_indices":[13,11,0,0,32,0,0],"split_type":[0,0,0,0,0,0,0],"sum_hessian":[2.791066E1,2.2550045E1,5.3606133E0,6.556999E0,1.5993047E1,8.885346E0,7.1077E0],"tree_param":{"num_deleted":"0","num_feature":"45","num_nodes":"7","size_leaf_vector":"1"}},{"base_weights":[1.9213147E-2,-5.546367E-1,8.587967E-1,-2.6277585E-3,-4.3184828E-2,1.5043892E-2,6.2663965E-2],"categories":[],"categories_nodes":[],"categories_segments":[],"categories_sizes":[],"default_left":[0,0,0,0,0,0,0],"id":8,"left_children":[1,3,5,-1,-1,-1,-1],"loss_changes":[1.4589796E1,2.640553E0,2.1813364E0,0E0,0E0,0E0,0E0],"parents":[2147483647,0,0,1,1,2,2],"right_children":[2,4,6,-1,-1,-1,-1],"split_conditions":[-3.4534845E-1,2.2737482E-1,1.421142E-1,-2.6277585E-3,-4.3184828E-2,1.5043892E-2,6.2663965E-2],"split_indices":[13,37,13,0,0,0,0],"split_type":[0,0,0,0,0,0,0],"sum_hessian":[2.8230404E1,1.6899792E1,1.1330613E1,7.008226E0,9.891565E0,5.528225E0,5.8023877E0],"tree_param":{"num_deleted":"0","num_feature":"45","num_nodes":"7","size_leaf_vector":"1"}},{"base_weights":[-1.618635E-2,-4.9488306E-2,3.4055585E-1,-1.1585371E-1,5.6568123E-2,2.3016838E-2,-3.8377818E-2],"categories":[],"categories_nodes":[],"categories_segments":[],"categories_sizes":[],"default_left":[0,0,0,0,0,0,0],"id":9,"left_children":[1,-1,3,5,-1,-1,-1],"loss_changes":[1.0761968E1,0E0,8.353053E0,6.051284E0,0E0,0E0,0E0],"parents":[2147483647,0,0,2,2,3,3],"right_children":[2,-1,4,6,-1,-1,-1],"split_conditions":[-1.5151334E0,-4.9488306E-2,-7.2081886E-2,-4.0625904E-2,5.6568123E-2,2.3016838E-2,-3.8377818E-2],"split_indices":[11,0,13,4,0,0,0],"split_type":[0,0,0,0,0,0,0],"sum_hessian":[2.882859E1,7.330068E0,2.1498522E1,1.4092286E1,7.406236E0,7.5538707E0,6.5384154E0],"tree_param":{"num_deleted":"0","num_feature":"45","num_nodes":"7","size_leaf_vector":"1"}},{"base_weights":[1.2710099E-2,4.416734E-2,-2.8988823E-1,-6.654195E-1,4.172121E-2,-9.2664295E-1,-0E0,-2.851945E-2,-5.6782495E-2],"categories":[],"categories_nodes":[],"categories_segments":[],"categories_sizes":[],"default_left":[0,0,0,0,0,0,0,0,0],"id":10,"left_children":[1,-1,3,5,-1,7,-1,-1,-1],"loss_changes":[8.180348E0,0E0,1.0173798E1,3.0360208E0,0E0,1.256752E-1,0E0,0E0,0E0],"parents":[2147483647,0,0,2,2,3,3,5,5],"right_children":[2,-1,4,6,-1,8,-1,-1,-1],"split_conditions":[-4.9409112E-1,4.416734E-2,2.8022888E-1,1.7338914E-1,4.172121E-2,3.160111E-1,-0E0,-2.851945E-2,-5.6782495E-2],"split_indices":[24,0,43,24,0,18,0,0,0],"split_type":[0,0,0,0,0,0,0,0,0],"sum_hessian":[2.8853237E1,7.0320034E0,2.1821234E1,1.673026E1,5.0909724E0,1.1678581E1,5.0516796E0,5.8739257E0,5.8046556E0],"tree_param":{"num_deleted":"0","num_feature":"45","num_nodes":"9","size_leaf_vector":"1"}},{"base_weights":[-1.2853536E-1,-6.1518025E-1,5.901266E-1,-4.7002852E-2,-8.753024E-3,5.5381227E-2,-0E0],"categories":[],"categories_nodes":[],"categories_segments":[],"categories_sizes":[],"default_left":[0,0,0,0,0,0,0],"id":11,"left_children":[1,3,5,-1,-1,-1,-1],"loss_changes":[1.0571901E1,2.2937908E0,3.7320218E0,0E0,0E0,0E0,0E0],"parents":[2147483647,0,0,1,1,2,2],"right_children":[2,4,6,-1,-1,-1,-1],"split_conditions":[-3.4534845E-1,-5.826836E-1,5.544766E-1,-4.7002852E-2,-8.753024E-3,5.5381227E-2,-0E0],"split_indices":[13,1,38,0,0,0,0],"split_type":[0,0,0,0,0,0,0],"sum_hessian":[2.8183283E1,1.6973051E1,1.1210231E1,8.980744E0,7.992307E0,5.5080037E0,5.7022276E0],"tree_param":{"num_deleted":"0","num_feature":"45","num_nodes":"7","size_leaf_vector":"1"}},{"base_weights":[3.674576E-3,-4.401176E-1,4.0566698E-2,1.0095188E-2,-6.9640416E-1,-1.2504429E-2,-4.6086438E-2],"categories":[],"categories_nodes":[],"categories_segments":[],"categories_sizes":[],"default_left":[0,0,0,0,0,0,0],"id":12,"left_children":[1,3,-1,-1,5,-1,-1],"loss_changes":[1.0617281E1,3.312331E0,0E0,0E0,1.0499654E0,0E0,0E0],"parents":[2147483647,0,0,1,1,4,4],"right_children":[2,4,-1,-1,6,-1,-1],"split_conditions":[-2.168596E-1,1.3879797E-1,4.0566698E-2,1.0095188E-2,-4.0322998E-1,-1.2504429E-2,-4.6086438E-2],"split_indices":[40,37,0,0,24,0,0],"split_type":[0,0,0,0,0,0,0],"sum_hessian":[2.752159E1,1.7975615E1,9.545974E0,5.077647E0,1.2897967E1,5.183791E0,7.714176E0],"tree_param":{"num_deleted":"0","num_feature":"45","num_nodes":"7","size_leaf_vector":"1"}},{"base_weights":[-1.6653756E-2,-5.3906643E-1,4.1421372E-2,-4.9931344E-2,-2.4815845E-1,-3.3272598E-2,9.398478E-3],"categories":[],"categories_nodes":[],"categories_segments":[],"categories_sizes":[],"default_left":[0,0,0,0,0,0,0],"id":13,"left_children":[1,3,-1,-1,5,-1,-1],"loss_changes":[1.2653364E1,2.0080233E0,0E0,0E0,2.423703E0,0E0,0E0],"parents":[2147483647,0,0,1,1,4,4],"right_children":[2,4,-1,-1,6,-1,-1],"split_conditions":[-3.463756E-1,-1.594508E0,4.1421372E-2,-4.9931344E-2,-6.117605E-1,-3.3272598E-2,9.398478E-3],"split_indices":[13,11,0,0,1,0,0],"split_type":[0,0,0,0,0,0,0],"sum_hessian":[2.6715168E1,1.6806292E1,9.908876E0,5.438424E0,1.1367867E1,5.657839E0,5.710028E0],"tree_param":{"num_deleted":"0","num_feature":"45","num_nodes":"7","size_leaf_vector":"1"}},{"base_weights":[-5.785431E-2,-4.0668973E-1,4.0968187E-2,2.4877181E-3,-5.956186E-1,-4.406144E-2,-1.0564345E-2],"categories":[],"categories_nodes":[],"categories_segments":[],"categories_sizes":[],"default_left":[0,0,0,0,0,0,0],"id":14,"left_children":[1,3,-1,-1,5,-1,-1],"loss_changes":[8.854147E0,1.8752835E0,0E0,0E0,1.3424587E0,0E0,0E0],"parents":[2147483647,0,0,1,1,4,4],"right_children":[2,4,-1,-1,6,-1,-1],"split_conditions":[-7.2081886E-2,-6.9811605E-2,4.0968187E-2,2.4877181E-3,-6.873686E-1,-4.406144E-2,-1.0564345E-2],"split_indices":[13,38,0,0,11,0,0],"split_type":[0,0,0,0,0,0,0],"sum_hessian":[2.6980577E1,1.976943E1,7.2111483E0,5.848077E0,1.3921352E1,7.0954213E0,6.825931E0],"tree_param":{"num_deleted":"0","num_feature":"45","num_nodes":"7","size_leaf_vector":"1"}},{"base_weights":[-6.593622E-2,-5.4176646E-1,5.118164E-1,-3.9815348E-2,-4.0477323E-3,5.2398194E-2,-8.27171E-3],"categories":[],"categories_nodes":[],"categories_segments":[],"categories_sizes":[],"default_left":[0,0,0,0,0,0,0],"id":15,"left_children":[1,3,5,-1,-1,-1,-1],"loss_changes":[8.203522E0,1.769721E0,5.1402225E0,0E0,0E0,0E0,0E0],"parents":[2147483647,0,0,1,1,2,2],"right_children":[2,4,6,-1,-1,-1,-1],"split_conditions":[-3.9722773E-1,-1.4227262E-1,6.655097E-1,-3.9815348E-2,-4.0477323E-3,5.2398194E-2,-8.27171E-3],"split_indices":[13,29,38,0,0,0,0],"split_type":[0,0,0,0,0,0,0],"sum_hessian":[2.7820993E1,1.5385251E1,1.2435741E1,9.302006E0,6.0832458E0,6.7178283E0,5.7179136E0],"tree_param":{"num_deleted":"0","num_feature":"45","num_nodes":"7","size_leaf_vector":"1"}},{"base_weights":[-1.2674332E-2,-5.149536E-1,3.8833342E-2,-1.2434412E-3,-4.11189E-2],"categories":[],"categories_nodes":[],"categories_segments":[],"categories_sizes":[],"default_left":[0,0,0,0,0],"id":16,"left_children":[1,3,-1,-1,-1],"loss_changes":[1.0950779E1,2.4534445E0,0E0,0E0,0E0],"parents":[2147483647,0,0,1,1],"right_children":[2,4,-1,-1,-1],"split_conditions":[-3.4534845E-1,3.3057535E-1,3.8833342E-2,-1.2434412E-3,-4.11189E-2],"split_indices":[13,37,0,0,0],"split_type":[0,0,0,0,0],"sum_hessian":[2.567796E1,1.5982294E1,9.695665E0,6.7029204E0,9.279374E0],"tree_param":{"num_deleted":"0","num_feature":"45","num_nodes":"5","size_leaf_vector":"1"}},{"base_weights":[-6.8867296E-2,-4.5731254E-2,2.402259E-1,7.26329E-1,-1.6041383E-2,8.921972E-3,5.734524E-2],"categories":[],"categories_nodes":[],"categories_segments":[],"categories_sizes":[],"default_left":[0,0,0,0,0,0,0],"id":17,"left_children":[1,-1,3,5,-1,-1,-1],"loss_changes":[7.5020065E0,0E0,5.97841E0,2.3379164E0,0E0,0E0,0E0],"parents":[2147483647,0,0,2,2,3,3],"right_children":[2,-1,4,6,-1,-1,-1],"split_conditions":[-1.5378119E0,-4.5731254E-2,2.6382384E-1,-3.8644093E-1,-1.6041383E-2,8.921972E-3,5.734524E-2],"split_indices":[11,0,18,13,0,0,0],"split_type":[0,0,0,0,0,0,0],"sum_hessian":[2.6598911E1,6.681391E0,1.991752E1,1.0609224E1,9.308296E0,5.3290477E0,5.280176E0],"tree_param":{"num_deleted":"0","num_feature":"45","num_nodes":"7","size_leaf_vector":"1"}},{"base_weights":[9.534401E-3,-3.734772E-2,2.8139216E-1,-5.8844704E-2,4.5856856E-2,1.2946776E-2,-2.5645083E-2],"categories":[],"categories_nodes":[],"categories_segments":[],"categories_sizes":[],"default_left":[0,0,0,0,0,0,0],"id":18,"left_children":[1,-1,3,5,-1,-1,-1],"loss_changes":[5.8829365E0,0E0,4.743081E0,2.2792504E0,0E0,0E0,0E0],"parents":[2147483647,0,0,2,2,3,3],"right_children":[2,-1,4,6,-1,-1,-1],"split_conditions":[-1.5151334E0,-3.734772E-2,-7.2081886E-2,-3.3397976E-2,4.5856856E-2,1.2946776E-2,-2.5645083E-2],"split_indices":[11,0,13,4,0,0,0],"split_type":[0,0,0,0,0,0,0],"sum_hessian":[2.680988E1,6.528322E0,2.0281557E1,1.3699843E1,6.581714E0,8.182594E0,5.5172486E0],"tree_param":{"num_deleted":"0","num_feature":"45","num_nodes":"7","size_leaf_vector":"1"}},{"base_weights":[8.018072E-2,-4.0476568E-2,3.9398113E-1,4.226149E-2,-5.527052E-3],"categories":[],"categories_nodes":[],"categories_segments":[],"categories_sizes":[],"default_left":[0,0,0,0,0],"id":19,"left_children":[1,-1,3,-1,-1],"loss_changes":[7.5207615E0,0E0,4.70545E0,0E0,0E0],"parents":[2147483647,0,0,2,2],"right_children":[2,-1,4,-1,-1],"split_conditions":[-1.5151334E0,-4.0476568E-2,1.587011E-1,4.226149E-2,-5.527052E-3],"split_indices":[11,0,18,0,0],"split_type":[0,0,0,0,0],"sum_hessian":[2.4944067E1,6.0088515E0,1.8935215E1,9.743475E0,9.191741E0],"tree_param":{"num_deleted":"0","num_feature":"45","num_nodes":"5","size_leaf_vector":"1"}},{"base_weights":[-5.6043413E-2,-3.444469E-1,3.2456275E-2,-3.6883697E-2,-4.302071E-3,2.3329275E-2,-2.0807164E-2],"categories":[],"categories_nodes":[],"categories_segments":[],"categories_sizes":[],"default_left":[0,0,0,0,0,0,0],"id":20,"left_children":[1,3,-1,-1,5,-1,-1],"loss_changes":[5.890212E0,2.6827338E0,0E0,0E0,2.5564103E0,0E0,0E0],"parents":[2147483647,0,0,1,1,4,4],"right_children":[2,4,-1,-1,6,-1,-1],"split_conditions":[-7.2081886E-2,-5.2809703E-1,3.2456275E-2,-3.6883697E-2,-9.4059266E-2,2.3329275E-2,-2.0807164E-2],"split_indices":[13,14,0,0,4,0,0],"split_type":[0,0,0,0,0,0,0],"sum_hessian":[2.7012993E1,1.9635654E1,7.377338E0,8.428789E0,1.1206865E1,5.053313E0,6.153552E0],"tree_param":{"num_deleted":"0","num_feature":"45","num_nodes":"7","size_leaf_vector":"1"}},{"base_weights":[3.3518074E-3,-4.0530026E-1,6.0812455E-1,-1.1310454E-3,-3.6961637E-2,5.452468E-2,-0E0],"categories":[],"categories_nodes":[],"categories_segments":[],"categories_sizes":[],"default_left":[0,0,0,0,0,0,0],"id":21,"left_children":[1,3,5,-1,-1,-1,-1],"loss_changes":[6.948277E0,2.0328572E0,3.2359104E0,0E0,0E0,0E0,0E0],"parents":[2147483647,0,0,1,1,2,2],"right_children":[2,4,6,-1,-1,-1,-1],"split_conditions":[-3.4534845E-1,4.9969697E-1,2.6313347E-1,-1.1310454E-3,-3.6961637E-2,5.452468E-2,-0E0],"split_indices":[13,31,18,0,0,0,0],"split_type":[0,0,0,0,0,0,0],"sum_hessian":[2.6035194E1,1.5634952E1,1.0400243E1,7.9227986E0,7.712153E0,5.2664366E0,5.133806E0],"tree_param":{"num_deleted":"0","num_feature":"45","num_nodes":"7","size_leaf_vector":"1"}},{"base_weights":[5.1363077E-2,-3.590211E-2,3.3306515E-1,-0E0,4.7238316E-2,2.312969E-2,-2.3003655E-2],"categories":[],"categories_nodes":[],"categories_segments":[],"categories_sizes":[],"default_left":[0,0,0,0,0,0,0],"id":22,"left_children":[1,-1,3,5,-1,-1,-1],"loss_changes":[5.868261E0,0E0,3.9905E0,3.1868036E0,0E0,0E0,0E0],"parents":[2147483647,0,0,2,2,3,3],"right_children":[2,-1,4,6,-1,-1,-1],"split_conditions":[-1.5151334E0,-3.590211E-2,-7.2081886E-2,4.738733E-1,4.7238316E-2,2.312969E-2,-2.3003655E-2],"split_indices":[11,0,13,37,0,0,0],"split_type":[0,0,0,0,0,0,0],"sum_hessian":[2.514895E1,6.229784E0,1.8919167E1,1.2972834E1,5.9463325E0,6.543695E0,6.429139E0],"tree_param":{"num_deleted":"0","num_feature":"45","num_nodes":"7","size_leaf_vector":"1"}},{"base_weights":[-9.246755E-3,-2.3561017E-1,3.7061922E-2,-3.7731953E-2,-4.538397E-3,-2.537473E-2,1.6270397E-2],"categories":[],"categories_nodes":[],"categories_segments":[],"categories_sizes":[],"default_left":[0,0,0,0,0,0,0],"id":23,"left_children":[1,3,-1,-1,5,-1,-1],"loss_changes":[4.737114E0,2.5259652E0,0E0,0E0,2.8668268E0,0E0,0E0],"parents":[2147483647,0,0,1,1,4,4],"right_children":[2,4,-1,-1,6,-1,-1],"split_conditions":[1.421142E-1,-1.5378119E0,3.7061922E-2,-3.7731953E-2,-1.0125486E-1,-2.537473E-2,1.6270397E-2],"split_indices":[13,11,0,0,8,0,0],"split_type":[0,0,0,0,0,0,0],"sum_hessian":[2.6154276E1,2.072304E1,5.431237E0,5.552511E0,1.5170528E1,5.916553E0,9.253976E0],"tree_param":{"num_deleted":"0","num_feature":"45","num_nodes":"7","size_leaf_vector":"1"}},{"base_weights":[-3.0256892E-2,-2.9035723E-1,3.016871E-2,-6.267341E-1,5.1960708E-3,-1.1043334E-2,-4.5281887E-2],"categories":[],"categories_nodes":[],"categories_segments":[],"categories_sizes":[],"default_left":[0,0,0,0,0,0,0],"id":24,"left_children":[1,3,-1,5,-1,-1,-1],"loss_changes":[4.704216E0,2.8236089E0,0E0,9.6532154E-1,0E0,0E0,0E0],"parents":[2147483647,0,0,1,1,3,3],"right_children":[2,4,-1,6,-1,-1,-1],"split_conditions":[-7.2081886E-2,-2.5996825E-1,3.016871E-2,8.0876315E-1,5.1960708E-3,-1.1043334E-2,-4.5281887E-2],"split_indices":[13,26,0,31,0,0,0],"split_type":[0,0,0,0,0,0,0],"sum_hessian":[2.667058E1,1.9404692E1,7.2658887E0,1.0289938E1,9.114753E0,5.0669084E0,5.22303E0],"tree_param":{"num_deleted":"0","num_feature":"45","num_nodes":"7","size_leaf_vector":"1"}},{"base_weights":[-6.562556E-2,-2.7970308E-1,3.2195594E-2,2.1554038E-2,-5.708729E-1,-2.3208582E-1,-5.3693928E-2,-2.6852408E-2,4.759275E-3],"categories":[],"categories_nodes":[],"categories_segments":[],"categories_sizes":[],"default_left":[0,0,0,0,0,0,0,0,0],"id":25,"left_children":[1,3,-1,-1,5,7,-1,-1,-1],"loss_changes":[4.3478913E0,4.827305E0,0E0,0E0,2.3783312E0,1.199738E0,0E0,0E0,0E0],"parents":[2147483647,0,0,1,1,4,4,5,5],"right_children":[2,4,-1,-1,6,8,-1,-1,-1],"split_conditions":[2.8022888E-1,-4.9409112E-1,3.2195594E-2,2.1554038E-2,2.2445792E-1,-5.5665046E-1,-5.3693928E-2,-2.6852408E-2,4.759275E-3],"split_indices":[43,24,0,0,7,40,0,0,0],"split_type":[0,0,0,0,0,0,0,0,0],"sum_hessian":[2.6678198E1,2.106832E1,5.609879E0,5.883054E0,1.5185266E1,1.0065858E1,5.1194077E0,5.0368876E0,5.0289702E0],"tree_param":{"num_deleted":"0","num_feature":"45","num_nodes":"9","size_leaf_vector":"1"}},{"base_weights":[2.3144875E-2,-1.997531E-1,3.4417834E-2,-3.4083072E-2,8.0478124E-2,-1.3912215E-2,2.0896897E-2],"categories":[],"categories_nodes":[],"categories_segments":[],"categories_sizes":[],"default_left":[0,0,0,0,0,0,0],"id":26,"left_children":[1,3,-1,-1,5,-1,-1],"loss_changes":[3.9716845E0,2.7867687E0,0E0,0E0,1.7370168E0,0E0,0E0],"parents":[2147483647,0,0,1,1,4,4],"right_children":[2,4,-1,-1,6,-1,-1],"split_conditions":[2.6785165E-2,-7.935316E-1,3.4417834E-2,-3.4083072E-2,-2.7654687E-1,-1.3912215E-2,2.0896897E-2],"split_indices":[23,15,0,0,1,0,0],"split_type":[0,0,0,0,0,0,0],"sum_hessian":[2.4529179E1,1.8784342E1,5.744837E0,6.511313E0,1.2273028E1,5.8905115E0,6.382517E0],"tree_param":{"num_deleted":"0","num_feature":"45","num_nodes":"7","size_leaf_vector":"1"}},{"base_weights":[5.1116638E-2,-3.230135E-1,4.8414415E-1,-2.97375E-2,3.2659508E-3,4.834209E-2,-3.383444E-3],"categories":[],"categories_nodes":[],"categories_segments":[],"categories_sizes":[],"default_left":[0,0,0,0,0,0,0],"id":27,"left_children":[1,3,5,-1,-1,-1,-1],"loss_changes":[4.4124427E0,1.6236123E0,3.5260572E0,0E0,0E0,0E0,0E0],"parents":[2147483647,0,0,1,1,2,2],"right_children":[2,4,6,-1,-1,-1,-1],"split_conditions":[-3.8841975E-1,-7.3059267E-1,3.8995287E-1,-2.97375E-2,3.2659508E-3,4.834209E-2,-3.383444E-3],"split_indices":[41,13,33,0,0,0,0],"split_type":[0,0,0,0,0,0,0],"sum_hessian":[2.5171099E1,1.3516309E1,1.1654791E1,7.790708E0,5.7256007E0,5.912203E0,5.742588E0],"tree_param":{"num_deleted":"0","num_feature":"45","num_nodes":"7","size_leaf_vector":"1"}},{"base_weights":[-4.3335248E-2,-3.6811468E-1,2.632362E-2,-3.0880103E-2,-0E0],"categories":[],"categories_nodes":[],"categories_segments":[],"categories_sizes":[],"default_left":[0,0,0,0,0],"id":28,"left_children":[1,3,-1,-1,-1],"loss_changes":[4.9494047E0,1.5941005E0,0E0,0E0,0E0],"parents":[2147483647,0,0,1,1],"right_children":[2,4,-1,-1,-1],"split_conditions":[-2.168596E-1,2.7492546E-2,2.632362E-2,-3.0880103E-2,-0E0],"split_indices":[40,2,0,0,0],"split_type":[0,0,0,0,0],"sum_hessian":[2.4782944E1,1.612275E1,8.660193E0,9.262311E0,6.8604383E0],"tree_param":{"num_deleted":"0","num_feature":"45","num_nodes":"5","size_leaf_vector":"1"}},{"base_weights":[-5.3076614E-2,-3.1255268E-2,1.4237612E-1,-2.1824101E-2,4.8584494E-1,4.1878656E-2,-3.5751255E-3],"categories":[],"categories_nodes":[],"categories_segments":[],"categories_sizes":[],"default_left":[0,0,0,0,0,0,0],"id":29,"left_children":[1,-1,3,-1,5,-1,-1],"loss_changes":[3.1468983E0,0E0,4.3420134E0,0E0,2.8031425E0,0E0,0E0],"parents":[2147483647,0,0,2,2,4,4],"right_children":[2,-1,4,-1,6,-1,-1],"split_conditions":[-1.5151334E0,-3.1255268E-2,-3.9081508E-1,-2.1824101E-2,3.0285037E-1,4.1878656E-2,-3.5751255E-3],"split_indices":[11,0,9,0,10,0,0],"split_type":[0,0,0,0,0,0,0],"sum_hessian":[2.5918621E1,6.171111E0,1.974751E1,7.1445823E0,1.2602928E1,7.5285096E0,5.0744185E0],"tree_param":{"num_deleted":"0","num_feature":"45","num_nodes":"7","size_leaf_vector":"1"}},{"base_weights":[8.157933E-3,-3.8303158E-1,4.258928E-1,-3.2379884E-2,5.045841E-4,3.4117154E-4,4.0104974E-2],"categories":[],"categories_nodes":[],"categories_segments":[],"categories_sizes":[],"default_left":[0,0,0,0,0,0,0],"id":30,"left_children":[1,3,5,-1,-1,-1,-1],"loss_changes":[4.4586444E0,1.5226104E0,2.0098736E0,0E0,0E0,0E0,0E0],"parents":[2147483647,0,0,1,1,2,2],"right_children":[2,4,6,-1,-1,-1,-1],"split_conditions":[-4.446825E-1,-7.3059267E-1,-7.802501E-2,-3.2379884E-2,5.045841E-4,3.4117154E-4,4.0104974E-2],"split_indices":[41,13,35,0,0,0,0],"split_type":[0,0,0,0,0,0,0],"sum_hessian":[2.5259935E1,1.2963707E1,1.2296227E1,7.513973E0,5.4497337E0,6.4241257E0,5.8721023E0],"tree_param":{"num_deleted":"0","num_feature":"45","num_nodes":"7","size_leaf_vector":"1"}},{"base_weights":[1.2872807E-2,-3.2336414E-1,5.049496E-1,-3.581239E-2,2.4620122E-3,4.4568013E-2,1.0027977E-3],"categories":[],"categories_nodes":[],"categories_segments":[],"categories_sizes":[],"default_left":[0,0,0,0,0,0,0],"id":31,"left_children":[1,3,5,-1,-1,-1,-1],"loss_changes":[4.4894886E0,2.437931E0,1.9671268E0,0E0,0E0,0E0,0E0],"parents":[2147483647,0,0,1,1,2,2],"right_children":[2,4,6,-1,-1,-1,-1],"split_conditions":[-3.7565416E-1,-3.715985E-1,2.6313347E-1,-3.581239E-2,2.4620122E-3,4.4568013E-2,1.0027977E-3],"split_indices":[13,27,18,0,0,0,0],"split_type":[0,0,0,0,0,0,0],"sum_hessian":[2.503767E1,1.4957098E1,1.0080572E1,6.9621434E0,7.994955E0,5.028713E0,5.0518594E0],"tree_param":{"num_deleted":"0","num_feature":"45","num_nodes":"7","size_leaf_vector":"1"}},{"base_weights":[-1.386803E-2,-3.1408498E-1,2.5052711E-2,1.7651262E-2,-6.5135074E-1,-4.2035308E-2,-1.6433014E-2],"categories":[],"categories_nodes":[],"categories_segments":[],"categories_sizes":[],"default_left":[0,0,0,0,0,0,0],"id":32,"left_children":[1,3,-1,-1,5,-1,-1],"loss_changes":[4.1509147E0,4.1145153E0,0E0,0E0,3.2964563E-1,0E0,0E0],"parents":[2147483647,0,0,1,1,4,4],"right_children":[2,4,-1,-1,6,-1,-1],"split_conditions":[-3.1273162E-1,-5.0108045E-1,2.5052711E-2,1.7651262E-2,-1.9956005E-1,-4.2035308E-2,-1.6433014E-2],"split_indices":[0,24,0,0,2,0,0],"split_type":[0,0,0,0,0,0,0],"sum_hessian":[2.4954329E1,1.6132675E1,8.821652E0,5.3020387E0,1.0830637E1,5.618497E0,5.2121406E0],"tree_param":{"num_deleted":"0","num_feature":"45","num_nodes":"7","size_leaf_vector":"1"}},{"base_weights":[6.1063176E-5,-3.7399538E-2,2.8336746E-1,-1.8705888E-2,5.661017E-1,-1.9364996E-3,5.326732E-2],"categories":[],"categories_nodes":[],"categories_segments":[],"categories_sizes":[],"default_left":[0,0,0,0,0,0,0],"id":33,"left_children":[1,-1,3,-1,5,-1,-1],"loss_changes":[5.535336E0,0E0,3.8001614E0,0E0,4.3504176E0,0E0,0E0],"parents":[2147483647,0,0,2,2,4,4],"right_children":[2,-1,4,-1,6,-1,-1],"split_conditions":[-1.5378119E0,-3.7399538E-2,-7.94926E-1,-1.8705888E-2,-1.3239522E-1,-1.9364996E-3,5.326732E-2],"split_indices":[11,0,27,0,8,0,0],"split_type":[0,0,0,0,0,0,0],"sum_hessian":[2.4338068E1,6.13797E0,1.8200098E1,5.269416E0,1.2930682E1,6.173567E0,6.7571154E0],"tree_param":{"num_deleted":"0","num_feature":"45","num_nodes":"7","size_leaf_vector":"1"}},{"base_weights":[-6.429724E-3,2.7298242E-2,-2.4303219E-1,-3.8019862E-2,1.08664975E-1,-1.8717049E-2,3.0223453E-2],"categories":[],"categories_nodes":[],"categories_segments":[],"categories_sizes":[],"default_left":[0,0,0,0,0,0,0],"id":34,"left_children":[1,-1,3,-1,5,-1,-1],"loss_changes":[3.2837737E0,0E0,3.397666E0,0E0,2.9775584E0,0E0,0E0],"parents":[2147483647,0,0,2,2,4,4],"right_children":[2,-1,4,-1,6,-1,-1],"split_conditions":[-4.9409112E-1,2.7298242E-2,-2.2849688E-1,-3.8019862E-2,9.5039226E-2,-1.8717049E-2,3.0223453E-2],"split_indices":[24,0,24,0,11,0,0],"split_type":[0,0,0,0,0,0,0],"sum_hessian":[2.3341475E1,6.480744E0,1.686073E1,6.4680877E0,1.0392642E1,5.286192E0,5.10645E0],"tree_param":{"num_deleted":"0","num_feature":"45","num_nodes":"7","size_leaf_vector":"1"}},{"base_weights":[2.5378188E-2,2.9507322E-2,-2.0107318E-1,-5.1704884E-1,1.7705545E-2,-4.685053E-3,-4.1775864E-2],"categories":[],"categories_nodes":[],"categories_segments":[],"categories_sizes":[],"default_left":[0,0,0,0,0,0,0],"id":35,"left_children":[1,-1,3,5,-1,-1,-1],"loss_changes":[3.3654568E0,0E0,3.4488401E0,1.4906266E0,0E0,0E0,0E0],"parents":[2147483647,0,0,2,2,3,3],"right_children":[2,-1,4,6,-1,-1,-1],"split_conditions":[-4.923439E-1,2.9507322E-2,2.188198E-1,2.7003765E-2,1.7705545E-2,-4.685053E-3,-4.1775864E-2],"split_indices":[24,0,24,11,0,0,0],"split_type":[0,0,0,0,0,0,0],"sum_hessian":[2.4082672E1,6.5593157E0,1.7523357E1,1.1326079E1,6.197277E0,5.552816E0,5.773264E0],"tree_param":{"num_deleted":"0","num_feature":"45","num_nodes":"7","size_leaf_vector":"1"}},{"base_weights":[-5.085051E-2,-3.353444E-1,2.1187304E-2,-2.9216943E-2,4.299888E-3],"categories":[],"categories_nodes":[],"categories_segments":[],"categories_sizes":[],"default_left":[0,0,0,0,0],"id":36,"left_children":[1,3,-1,-1,-1],"loss_changes":[3.592333E0,1.8528907E0,0E0,0E0,0E0],"parents":[2147483647,0,0,1,1],"right_children":[2,4,-1,-1,-1],"split_conditions":[5.0325197E-1,-3.7564027E-1,2.1187304E-2,-2.9216943E-2,4.299888E-3],"split_indices":[11,12,0,0,0],"split_type":[0,0,0,0,0],"sum_hessian":[2.4618994E1,1.5707406E1,8.911588E0,9.778962E0,5.928444E0],"tree_param":{"num_deleted":"0","num_feature":"45","num_nodes":"5","size_leaf_vector":"1"}},{"base_weights":[-8.6412266E-2,-2.779299E-1,2.7762631E-2,1.4900491E-2,-5.1030576E-1,-3.934635E-2,-1.4108088E-3],"categories":[],"categories_nodes":[],"categories_segments":[],"categories_sizes":[],"default_left":[0,0,0,0,0,0,0],"id":37,"left_children":[1,3,-1,-1,5,-1,-1],"loss_changes":[3.2876616E0,2.9298277E0,0E0,0E0,1.9189978E0,0E0,0E0],"parents":[2147483647,0,0,1,1,4,4],"right_children":[2,4,-1,-1,6,-1,-1],"split_conditions":[2.21814E-1,-4.9409112E-1,2.7762631E-2,1.4900491E-2,-1.5139738E-1,-3.934635E-2,-1.4108088E-3],"split_indices":[43,24,0,0,2,0,0],"split_type":[0,0,0,0,0,0,0],"sum_hessian":[2.4722752E1,1.9596495E1,5.1262574E0,5.4287195E0,1.4167774E1,8.468708E0,5.6990666E0],"tree_param":{"num_deleted":"0","num_feature":"45","num_nodes":"7","size_leaf_vector":"1"}},{"base_weights":[-3.9147053E-2,-3.4271348E-1,2.1563655E-2,-3.2821573E-2,4.3271595E-4],"categories":[],"categories_nodes":[],"categories_segments":[],"categories_sizes":[],"default_left":[0,0,0,0,0],"id":38,"left_children":[1,3,-1,-1,-1],"loss_changes":[3.8065915E0,1.8668069E0,0E0,0E0,0E0],"parents":[2147483647,0,0,1,1],"right_children":[2,4,-1,-1,-1],"split_conditions":[-3.7565416E-1,-6.117605E-1,2.1563655E-2,-3.2821573E-2,4.3271595E-4],"split_indices":[13,1,0,0,0],"split_type":[0,0,0,0,0],"sum_hessian":[2.4683105E1,1.52963085E1,9.386798E0,7.772782E0,7.523526E0],"tree_param":{"num_deleted":"0","num_feature":"45","num_nodes":"5","size_leaf_vector":"1"}},{"base_weights":[-5.617751E-3,2.9021865E-2,-2.1819335E-1,1.3172087E-2,-5.221578E-1,-4.0411178E-2,-4.979055E-3],"categories":[],"categories_nodes":[],"categories_segments":[],"categories_sizes":[],"default_left":[0,0,0,0,0,0,0],"id":39,"left_children":[1,-1,3,-1,5,-1,-1],"loss_changes":[3.108628E0,0E0,2.8908992E0,0E0,1.265387E0,0E0,0E0],"parents":[2147483647,0,0,2,2,4,4],"right_children":[2,-1,4,-1,6,-1,-1],"split_conditions":[-3.761929E-1,2.9021865E-2,-3.87412E-1,1.3172087E-2,-1.9345474E-1,-4.0411178E-2,-4.979055E-3],"split_indices":[34,0,29,0,12,0,0],"split_type":[0,0,0,0,0,0,0],"sum_hessian":[2.3226845E1,5.596578E0,1.7630266E1,6.7457995E0,1.0884468E1,5.8052907E0,5.079177E0],"tree_param":{"num_deleted":"0","num_feature":"45","num_nodes":"7","size_leaf_vector":"1"}},{"base_weights":[-3.760504E-2,3.2783508E-1,-4.2466187E-1,3.8864505E-2,-1.1884688E-2,-1.9923008E-4,-3.4576647E-2],"categories":[],"categories_nodes":[],"categories_segments":[],"categories_sizes":[],"default_left":[0,0,0,0,0,0,0],"id":40,"left_children":[1,3,5,-1,-1,-1,-1],"loss_changes":[3.7028964E0,3.633392E0,1.3614187E0,0E0,0E0,0E0,0E0],"parents":[2147483647,0,0,1,1,2,2],"right_children":[2,4,6,-1,-1,-1,-1],"split_conditions":[4.5154983E-1,5.82797E-1,-3.8947827E-1,3.8864505E-2,-1.1884688E-2,-1.9923008E-4,-3.4576647E-2],"split_indices":[37,27,43,0,0,0,0],"split_type":[0,0,0,0,0,0,0],"sum_hessian":[2.412614E1,1.2355411E1,1.1770729E1,6.7740784E0,5.581332E0,5.1081824E0,6.6625466E0],"tree_param":{"num_deleted":"0","num_feature":"45","num_nodes":"7","size_leaf_vector":"1"}},{"base_weights":[-1.25284055E-2,-3.337541E-2,2.0330594E-1,3.889595E-2,-6.5888114E-2,2.5925377E-2,-2.3631366E-2],"categories":[],"categories_nodes":[],"categories_segments":[],"categories_sizes":[],"default_left":[0,0,0,0,0,0,0],"id":41,"left_children":[1,-1,3,-1,5,-1,-1],"loss_changes":[3.7174017E0,0E0,3.132762E0,0E0,3.5815418E0,0E0,0E0],"parents":[2147483647,0,0,2,2,4,4],"right_children":[2,-1,4,-1,6,-1,-1],"split_conditions":[-1.5151334E0,-3.337541E-2,-4.8884916E-1,3.889595E-2,-3.7917927E-1,2.5925377E-2,-2.3631366E-2],"split_indices":[11,0,24,0,39,0,0],"split_type":[0,0,0,0,0,0,0],"sum_hessian":[2.4007748E1,5.5465603E0,1.8461187E1,5.4051657E0,1.3056022E1,5.144232E0,7.91179E0],"tree_param":{"num_deleted":"0","num_feature":"45","num_nodes":"7","size_leaf_vector":"1"}},{"base_weights":[3.9792996E-2,-1.806826E-1,3.2061536E-2,9.80571E-2,-2.8281856E-2,-1.4228356E-2,2.3845298E-2],"categories":[],"categories_nodes":[],"categories_segments":[],"categories_sizes":[],"default_left":[0,0,0,0,0,0,0],"id":42,"left_children":[1,3,-1,5,-1,-1,-1],"loss_changes":[3.4120467E0,2.0974026E0,0E0,1.8199856E0,0E0,0E0,0E0],"parents":[2147483647,0,0,1,1,3,3],"right_children":[2,4,-1,6,-1,-1,-1],"split_conditions":[-7.2081886E-2,-4.043871E-1,3.2061536E-2,-5.6354296E-1,-2.8281856E-2,-1.4228356E-2,2.3845298E-2],"split_indices":[13,15,0,43,0,0,0],"split_type":[0,0,0,0,0,0,0],"sum_hessian":[2.351037E1,1.7594044E1,5.9163265E0,1.0486462E1,7.107582E0,5.2097254E0,5.2767363E0],"tree_param":{"num_deleted":"0","num_feature":"45","num_nodes":"7","size_leaf_vector":"1"}},{"base_weights":[2.584755E-2,-2.8951779E-2,2.2800694E-1,-1.6847083E-2,4.76727E-1,-9.925588E-3,4.7720354E-2],"categories":[],"categories_nodes":[],"categories_segments":[],"categories_sizes":[],"default_left":[0,0,0,0,0,0,0],"id":43,"left_children":[1,-1,3,-1,5,-1,-1],"loss_changes":[3.050529E0,0E0,2.8366299E0,0E0,4.6810126E0,0E0,0E0],"parents":[2147483647,0,0,2,2,4,4],"right_children":[2,-1,4,-1,6,-1,-1],"split_conditions":[-1.5151334E0,-2.8951779E-2,-8.4110177E-1,-1.6847083E-2,-3.038587E-1,-9.925588E-3,4.7720354E-2],"split_indices":[11,0,1,0,9,0,0],"split_type":[0,0,0,0,0,0,0],"sum_hessian":[2.3153908E1,5.2090235E0,1.7944883E1,5.2540197E0,1.2690865E1,5.413513E0,7.277352E0],"tree_param":{"num_deleted":"0","num_feature":"45","num_nodes":"7","size_leaf_vector":"1"}},{"base_weights":[2.789019E-2,-2.0552807E-1,2.5330318E-2,5.7171704E-3,-2.9619938E-2],"categories":[],"categories_nodes":[],"categories_segments":[],"categories_sizes":[],"default_left":[0,0,0,0,0],"id":44,"left_children":[1,3,-1,-1,-1],"loss_changes":[2.698061E0,2.094883E0,0E0,0E0,0E0],"parents":[2147483647,0,0,1,1],"right_children":[2,4,-1,-1,-1],"split_conditions":[5.826267E-1,7.1220636E-1,2.5330318E-2,5.7171704E-3,-2.9619938E-2],"split_indices":[11,31,0,0,0],"split_type":[0,0,0,0,0],"sum_hessian":[2.194439E1,1.4994812E1,6.949577E0,8.452277E0,6.542535E0],"tree_param":{"num_deleted":"0","num_feature":"45","num_nodes":"5","size_leaf_vector":"1"}},{"base_weights":[5.952271E-3,3.14067E-1,-2.8471196E-1,-1.126808E-2,3.7266176E-2,3.3249315E-3,-3.1685885E-2],"categories":[],"categories_nodes":[],"categories_segments":[],"categories_sizes":[],"default_left":[0,0,0,0,0,0,0],"id":45,"left_children":[1,3,5,-1,-1,-1,-1],"loss_changes":[2.2064338E0,3.0351324E0,1.6315771E0,0E0,0E0,0E0,0E0],"parents":[2147483647,0,0,1,1,2,2],"right_children":[2,4,6,-1,-1,-1,-1],"split_conditions":[3.0557975E-1,-5.217867E-1,2.8359172E-1,-1.126808E-2,3.7266176E-2,3.3249315E-3,-3.1685885E-2],"split_indices":[33,42,18,0,0,0,0],"split_type":[0,0,0,0,0,0,0],"sum_hessian":[2.2605724E1,1.110138E1,1.1504345E1,5.04122E0,6.0601597E0,5.9947033E0,5.509641E0],"tree_param":{"num_deleted":"0","num_feature":"45","num_nodes":"7","size_leaf_vector":"1"}},{"base_weights":[4.1864745E-2,-2.8288169E-2,2.3387614E-1,-4.9183432E-2,3.7860323E-2,1.5982185E-2,-1.6375262E-2],"categories":[],"categories_nodes":[],"categories_segments":[],"categories_sizes":[],"default_left":[0,0,0,0,0,0,0],"id":46,"left_children":[1,-1,3,5,-1,-1,-1],"loss_changes":[2.9457138E0,0E0,2.9777312E0,1.4797031E0,0E0,0E0,0E0],"parents":[2147483647,0,0,2,2,3,3],"right_children":[2,-1,4,6,-1,-1,-1],"split_conditions":[-9.8300576E-1,-2.8288169E-2,-3.7129845E-2,-1.64931E-1,3.7860323E-2,1.5982185E-2,-1.6375262E-2],"split_indices":[40,0,2,18,0,0,0],"split_type":[0,0,0,0,0,0,0],"sum_hessian":[2.3398277E1,5.0259943E0,1.8372282E1,1.2387208E1,5.9850745E0,5.1090374E0,7.2781706E0],"tree_param":{"num_deleted":"0","num_feature":"45","num_nodes":"7","size_leaf_vector":"1"}},{"base_weights":[-0E0,-2.971859E-1,2.0296475E-2,-3.0441856E-2,9.1129625E-3],"categories":[],"categories_nodes":[],"categories_segments":[],"categories_sizes":[],"default_left":[0,0,0,0,0],"id":47,"left_children":[1,3,-1,-1,-1],"loss_changes":[3.0667355E0,2.329731E0,0E0,0E0,0E0],"parents":[2147483647,0,0,1,1],"right_children":[2,4,-1,-1,-1],"split_conditions":[-1.4380528E-1,-1.7258236E-1,2.0296475E-2,-3.0441856E-2,9.1129625E-3],"split_indices":[2,40,0,0,0],"split_type":[0,0,0,0,0],"sum_hessian":[2.3368973E1,1.35637245E1,9.805248E0,8.183162E0,5.380563E0],"tree_param":{"num_deleted":"0","num_feature":"45","num_nodes":"5","size_leaf_vector":"1"}},{"base_weights":[9.8119296E-2,4.3960837E-1,-1.5734283E-2,8.8889565E-4,4.3330435E-2],"categories":[],"categories_nodes":[],"categories_segments":[],"categories_sizes":[],"default_left":[0,0,0,0,0],"id":48,"left_children":[1,3,-1,-1,-1],"loss_changes":[3.362551E0,2.241058E0,0E0,0E0,0E0],"parents":[2147483647,0,0,1,1],"right_children":[2,4,-1,-1,-1],"split_conditions":[5.0171095E-1,-2.845615E-1,-1.5734283E-2,8.8889565E-4,4.3330435E-2],"split_indices":[32,3,0,0,0],"split_type":[0,0,0,0,0],"sum_hessian":[2.1783262E1,1.2018437E1,9.764826E0,6.687617E0,5.330821E0],"tree_param":{"num_deleted":"0","num_feature":"45","num_nodes":"5","size_leaf_vector":"1"}},{"base_weights":[-7.962458E-2,-3.3352137E-2,1.2418093E-1,-1.6180364E-2,4.4119355E-1,-1.0976885E-2,4.9713865E-2],"categories":[],"categories_nodes":[],"categories_segments":[],"categories_sizes":[],"default_left":[0,0,0,0,0,0,0],"id":49,"left_children":[1,-1,3,-1,5,-1,-1],"loss_changes":[3.120258E0,0E0,2.8823419E0,0E0,4.6097093E0,0E0,0E0],"parents":[2147483647,0,0,2,2,4,4],"right_children":[2,-1,4,-1,6,-1,-1],"split_conditions":[-1.5151334E0,-3.3352137E-2,-1.0125486E-1,-1.6180364E-2,-6.642007E-1,-1.0976885E-2,4.9713865E-2],"split_indices":[11,0,8,0,27,0,0],"split_type":[0,0,0,0,0,0,0],"sum_hessian":[2.3917818E1,5.701732E0,1.8216085E1,7.4112554E0,1.0804831E1,5.115707E0,5.689123E0],"tree_param":{"num_deleted":"0","num_feature":"45","num_nodes":"7","size_leaf_vector":"1"}},{"base_weights":[6.8085273E-3,-2.7795756E-2,2.16792E-1,-1.2162666E-2,4.6320906E-1,4.5763455E-2,-4.7373345E-5],"categories":[],"categories_nodes":[],"categories_segments":[],"categories_sizes":[],"default_left":[0,0,0,0,0,0,0],"id":50,"left_children":[1,-1,3,-1,5,-1,-1],"loss_changes":[2.8791678E0,0E0,2.1819775E0,0E0,2.661897E0,0E0,0E0],"parents":[2147483647,0,0,2,2,4,4],"right_children":[2,-1,4,-1,6,-1,-1],"split_conditions":[-1.5151334E0,-2.7795756E-2,-2.4958825E-1,-1.2162666E-2,5.143242E-1,4.5763455E-2,-4.7373345E-5],"split_indices":[11,0,35,0,31,0,0],"split_type":[0,0,0,0,0,0,0],"sum_hessian":[2.26332E1,5.573478E0,1.7059723E1,5.813431E0,1.1246291E1,5.3141665E0,5.932125E0],"tree_param":{"num_deleted":"0","num_feature":"45","num_nodes":"7","size_leaf_vector":"1"}},{"base_weights":[-9.017376E-2,-3.2350236E-1,1.948641E-2,9.35465E-3,-5.529596E-1,-8.974439E-3,-4.0611368E-2],"categories":[],"categories_nodes":[],"categories_segments":[],"categories_sizes":[],"default_left":[0,0,0,0,0,0,0],"id":51,"left_children":[1,3,-1,-1,5,-1,-1],"loss_changes":[2.9365752E0,2.203777E0,0E0,0E0,9.6938443E-1,0E0,0E0],"parents":[2147483647,0,0,1,1,4,4],"right_children":[2,4,-1,-1,6,-1,-1],"split_conditions":[-6.377063E-2,-4.696286E-1,1.948641E-2,9.35465E-3,2.1275866E-1,-8.974439E-3,-4.0611368E-2],"split_indices":[43,24,0,0,18,0,0],"split_type":[0,0,0,0,0,0,0],"sum_hessian":[2.4158503E1,1.66147E1,7.5438023E0,5.073596E0,1.1541104E1,5.5804915E0,5.960613E0],"tree_param":{"num_deleted":"0","num_feature":"45","num_nodes":"7","size_leaf_vector":"1"}},{"base_weights":[-1.3091275E-1,-3.1920385E-1,1.9396443E-2,7.3281317E-3,-5.086217E-1,-5.3759767E-3,-4.75373E-2],"categories":[],"categories_nodes":[],"categories_segments":[],"categories_sizes":[],"default_left":[0,0,0,0,0,0,0],"id":52,"left_children":[1,3,-1,-1,5,-1,-1],"loss_changes":[2.5293655E0,1.7701149E0,0E0,0E0,2.229823E0,0E0,0E0],"parents":[2147483647,0,0,1,1,4,4],"right_children":[2,4,-1,-1,6,-1,-1],"split_conditions":[-7.2081886E-2,-3.5527763E-1,1.9396443E-2,7.3281317E-3,-2.8583714E-1,-5.3759767E-3,-4.75373E-2],"split_indices":[13,34,0,0,44,0,0],"split_type":[0,0,0,0,0,0,0],"sum_hessian":[2.3693716E1,1.780843E1,5.8852863E0,5.0613065E0,1.2747122E1,7.4540553E0,5.293067E0],"tree_param":{"num_deleted":"0","num_feature":"45","num_nodes":"7","size_leaf_vector":"1"}},{"base_weights":[-3.9943354E-3,-2.549664E-1,1.7583145E-2,3.0963998E-3,-2.2810016E-2],"categories":[],"categories_nodes":[],"categories_segments":[],"categories_sizes":[],"default_left":[0,0,0,0,0],"id":53,"left_children":[1,3,-1,-1,-1],"loss_changes":[2.1991527E0,1.0027859E0,0E0,0E0,0E0],"parents":[2147483647,0,0,1,1],"right_children":[2,4,-1,-1,-1],"split_conditions":[-1.13887325E-1,-6.6107666E-1,1.7583145E-2,3.0963998E-3,-2.2810016E-2],"split_indices":[3,15,0,0,0],"split_type":[0,0,0,0,0],"sum_hessian":[2.274142E1,1.3663767E1,9.077654E0,5.38268E0,8.281087E0],"tree_param":{"num_deleted":"0","num_feature":"45","num_nodes":"5","size_leaf_vector":"1"}},{"base_weights":[-2.250087E-2,2.6971185E-1,-3.9072734E-1,2.8268024E-2,-9.5911715E-3,-5.3324755E-3,-2.9431134E-2],"categories":[],"categories_nodes":[],"categories_segments":[],"categories_sizes":[],"default_left":[0,0,0,0,0,0,0],"id":54,"left_children":[1,3,5,-1,-1,-1,-1],"loss_changes":[2.7072155E0,2.036933E0,4.9782586E-1,0E0,0E0,0E0,0E0],"parents":[2147483647,0,0,1,1,2,2],"right_children":[2,4,6,-1,-1,-1,-1],"split_conditions":[5.143242E-1,4.9368575E-1,6.7351264E-1,2.8268024E-2,-9.5911715E-3,-5.3324755E-3,-2.9431134E-2],"split_indices":[31,27,36,0,0,0,0],"split_type":[0,0,0,0,0,0,0],"sum_hessian":[2.3068022E1,1.2859278E1,1.0208744E1,7.833215E0,5.026062E0,5.0310016E0,5.1777425E0],"tree_param":{"num_deleted":"0","num_feature":"45","num_nodes":"7","size_leaf_vector":"1"}},{"base_weights":[4.385316E-2,2.5628158E-1,-2.0027695E-2,-2.0997984E-2,3.641427E-2,-1.9147394E-2,1.6051922E-2],"categories":[],"categories_nodes":[],"categories_segments":[],"categories_sizes":[],"default_left":[0,0,0,0,0,0,0],"id":55,"left_children":[1,3,-1,5,-1,-1,-1],"loss_changes":[2.2637131E0,2.2263236E0,0E0,1.5082974E0,0E0,0E0,0E0],"parents":[2147483647,0,0,1,1,3,3],"right_children":[2,4,-1,6,-1,-1,-1],"split_conditions":[8.400367E-1,-1.7258236E-1,-2.0027695E-2,1.09918386E-1,3.641427E-2,-1.9147394E-2,1.6051922E-2],"split_indices":[31,40,0,36,0,0,0],"split_type":[0,0,0,0,0,0,0],"sum_hessian":[2.2044256E1,1.5353538E1,6.6907177E0,1.0140268E1,5.2132697E0,5.0106506E0,5.129617E0],"tree_param":{"num_deleted":"0","num_feature":"45","num_nodes":"7","size_leaf_vector":"1"}},{"base_weights":[-7.805483E-2,2.6963655E-2,-2.9553986E-1,-6.0932475E-1,1.43156415E-2,-1.0297056E-2,-4.683749E-2],"categories":[],"categories_nodes":[],"categories_segments":[],"categories_sizes":[],"default_left":[0,0,0,0,0,0,0],"id":56,"left_children":[1,-1,3,5,-1,-1,-1],"loss_changes":[3.1712859E0,0E0,3.3998642E0,1.2504344E0,0E0,0E0,0E0],"parents":[2147483647,0,0,2,2,3,3],"right_children":[2,-1,4,6,-1,-1,-1],"split_conditions":[-4.9409112E-1,2.6963655E-2,-8.737229E-2,2.0959866E-1,1.43156415E-2,-1.0297056E-2,-4.683749E-2],"split_indices":[24,0,43,25,0,0,0],"split_type":[0,0,0,0,0,0,0],"sum_hessian":[2.1615017E1,5.125884E0,1.6489134E1,1.0793177E1,5.6959567E0,5.7023444E0,5.0908318E0],"tree_param":{"num_deleted":"0","num_feature":"45","num_nodes":"7","size_leaf_vector":"1"}},{"base_weights":[-8.2980424E-2,1.7454354E-2,-2.6284683E-1,-5.36273E-1,1.5737176E-2,-3.5670546E-3,-4.3314938E-2],"categories":[],"categories_nodes":[],"categories_segments":[],"categories_sizes":[],"default_left":[0,0,0,0,0,0,0],"id":57,"left_children":[1,-1,3,5,-1,-1,-1],"loss_changes":[1.9910519E0,0E0,3.0444136E0,1.8008358E0,0E0,0E0,0E0],"parents":[2147483647,0,0,2,2,3,3],"right_children":[2,-1,4,6,-1,-1,-1],"split_conditions":[-4.9409112E-1,1.7454354E-2,2.188198E-1,2.7003765E-2,1.5737176E-2,-3.5670546E-3,-4.3314938E-2],"split_indices":[24,0,24,11,0,0,0],"split_type":[0,0,0,0,0,0,0],"sum_hessian":[2.355039E1,6.4822416E0,1.7068148E1,1.1750319E1,5.31783E0,5.5088143E0,6.241504E0],"tree_param":{"num_deleted":"0","num_feature":"45","num_nodes":"7","size_leaf_vector":"1"}},{"base_weights":[-2.374765E-2,-1.9608295E-2,2.229261E-1,2.8811818E-2,-8.18612E-3],"categories":[],"categories_nodes":[],"categories_segments":[],"categories_sizes":[],"default_left":[0,0,0,0,0],"id":58,"left_children":[1,-1,3,-1,-1],"loss_changes":[2.1617787E0,0E0,2.052882E0,0E0,0E0],"parents":[2147483647,0,0,2,2],"right_children":[2,-1,4,-1,-1],"split_conditions":[-6.9512737E-1,-1.9608295E-2,3.371494E-1,2.8811818E-2,-8.18612E-3],"split_indices":[41,0,33,0,0],"split_type":[0,0,0,0,0],"sum_hessian":[2.1639204E1,8.60413E0,1.3035073E1,6.6901073E0,6.3449664E0],"tree_param":{"num_deleted":"0","num_feature":"45","num_nodes":"5","size_leaf_vector":"1"}},{"base_weights":[-6.0386583E-2,-3.1236587E-2,1.4172408E-1,4.365796E-1,-1.74257E-2,4.002237E-2,-2.1955735E-4],"categories":[],"categories_nodes":[],"categories_segments":[],"categories_sizes":[],"default_left":[0,0,0,0,0,0,0],"id":59,"left_children":[1,-1,3,5,-1,-1,-1],"loss_changes":[2.8577065E0,0E0,2.7988315E0,2.0032074E0,0E0,0E0,0E0],"parents":[2147483647,0,0,2,2,3,3],"right_children":[2,-1,4,6,-1,-1,-1],"split_conditions":[-1.5151334E0,-3.1236587E-2,3.4896436E-1,4.8269522E-1,-1.74257E-2,4.002237E-2,-2.1955735E-4],"split_indices":[11,0,10,32,0,0,0],"split_type":[0,0,0,0,0,0,0],"sum_hessian":[2.2854656E1,5.605736E0,1.724892E1,1.0966509E1,6.2824125E0,5.6861506E0,5.2803583E0],"tree_param":{"num_deleted":"0","num_feature":"45","num_nodes":"7","size_leaf_vector":"1"}},{"base_weights":[-5.718608E-2,1.782436E-2,-2.3030144E-1,-3.2981254E-2,7.48667E-2,1.9500693E-2,-1.1859612E-2],"categories":[],"categories_nodes":[],"categories_segments":[],"categories_sizes":[],"default_left":[0,0,0,0,0,0,0],"id":60,"left_children":[1,-1,3,-1,5,-1,-1],"loss_changes":[1.7808516E0,0E0,2.4170284E0,0E0,1.1958848E0,0E0,0E0],"parents":[2147483647,0,0,2,2,4,4],"right_children":[2,-1,4,-1,6,-1,-1],"split_conditions":[-4.9409112E-1,1.782436E-2,-2.3898077E-1,-3.2981254E-2,1.742671E-1,1.9500693E-2,-1.1859612E-2],"split_indices":[24,0,24,0,30,0,0],"split_type":[0,0,0,0,0,0,0],"sum_hessian":[2.289742E1,6.2723155E0,1.6625105E1,6.560993E0,1.0064112E1,5.042427E0,5.0216846E0],"tree_param":{"num_deleted":"0","num_feature":"45","num_nodes":"7","size_leaf_vector":"1"}},{"base_weights":[-2.6777456E-2,2.5877139E-2,-2.2585508E-1,-4.7624263E-1,1.386022E-2,-3.999889E-3,-3.7278198E-2],"categories":[],"categories_nodes":[],"categories_segments":[],"categories_sizes":[],"default_left":[0,0,0,0,0,0,0],"id":61,"left_children":[1,-1,3,5,-1,-1,-1],"loss_changes":[2.662537E0,0E0,2.4480205E0,1.2100797E0,0E0,0E0,0E0],"parents":[2147483647,0,0,2,2,3,3],"right_children":[2,-1,4,6,-1,-1,-1],"split_conditions":[-4.9409112E-1,2.5877139E-2,2.188198E-1,2.7003765E-2,1.386022E-2,-3.999889E-3,-3.7278198E-2],"split_indices":[24,0,24,11,0,0,0],"split_type":[0,0,0,0,0,0,0],"sum_hessian":[2.2761251E1,5.532422E0,1.722883E1,1.1671615E1,5.557215E0,5.398011E0,6.273603E0],"tree_param":{"num_deleted":"0","num_feature":"45","num_nodes":"7","size_leaf_vector":"1"}},{"base_weights":[-7.5931554E-3,2.9756261E-2,-2.4794342E-1,6.6683977E-3,-4.3170634E-1,-3.4017455E-2,-5.9009576E-3],"categories":[],"categories_nodes":[],"categories_segments":[],"categories_sizes":[],"default_left":[0,0,0,0,0,0,0],"id":62,"left_children":[1,-1,3,-1,5,-1,-1],"loss_changes":[3.452814E0,0E0,1.300161E0,0E0,7.830019E-1,0E0,0E0],"parents":[2147483647,0,0,2,2,4,4],"right_children":[2,-1,4,-1,6,-1,-1],"split_conditions":[-5.7391092E-2,2.9756261E-2,3.166129E-1,6.6683977E-3,6.35606E-1,-3.4017455E-2,-5.9009576E-3],"split_indices":[38,0,33,0,33,0,0],"split_type":[0,0,0,0,0,0,0],"sum_hessian":[2.205601E1,5.748515E0,1.6307495E1,5.215434E0,1.1092061E1,5.3576646E0,5.734396E0],"tree_param":{"num_deleted":"0","num_feature":"45","num_nodes":"7","size_leaf_vector":"1"}},{"base_weights":[-1.0020015E-1,7.765826E-2,-2.4781732E-2,-1.9374277E-2,3.4435737E-1,1.8790107E-3,2.8975368E-2],"categories":[],"categories_nodes":[],"categories_segments":[],"categories_sizes":[],"default_left":[0,0,0,0,0,0,0],"id":63,"left_children":[1,3,-1,-1,5,-1,-1],"loss_changes":[1.7293556E0,2.2210333E0,0E0,0E0,7.377299E-1,0E0,0E0],"parents":[2147483647,0,0,1,1,4,4],"right_children":[2,4,-1,-1,6,-1,-1],"split_conditions":[4.592822E-1,-8.574752E-1,-2.4781732E-2,-1.9374277E-2,-3.0300638E-1,1.8790107E-3,2.8975368E-2],"split_indices":[7,15,0,0,6,0,0],"split_type":[0,0,0,0,0,0,0],"sum_hessian":[2.2447123E1,1.5862996E1,6.5841265E0,5.479127E0,1.0383869E1,5.193496E0,5.1903725E0],"tree_param":{"num_deleted":"0","num_feature":"45","num_nodes":"7","size_leaf_vector":"1"}},{"base_weights":[4.1681983E-2,-2.058936E-1,2.989105E-2,-2.8647259E-2,8.409936E-3,-1.5084343E-2,1.6668692E-2],"categories":[],"categories_nodes":[],"categories_segments":[],"categories_sizes":[],"default_left":[0,0,0,0,0,0,0],"id":64,"left_children":[1,3,-1,-1,5,-1,-1],"loss_changes":[3.2767272E0,1.3411916E0,0E0,0E0,1.2209698E0,0E0,0E0],"parents":[2147483647,0,0,1,1,4,4],"right_children":[2,4,-1,-1,6,-1,-1],"split_conditions":[-8.737229E-2,-3.3613E-1,2.989105E-2,-2.8647259E-2,-3.806439E-1,-1.5084343E-2,1.6668692E-2],"split_indices":[43,9,0,0,14,0,0],"split_type":[0,0,0,0,0,0,0],"sum_hessian":[2.1619852E1,1.5271452E1,6.3484006E0,5.184584E0,1.0086867E1,5.040692E0,5.046176E0],"tree_param":{"num_deleted":"0","num_feature":"45","num_nodes":"7","size_leaf_vector":"1"}},{"base_weights":[-3.6957927E-2,2.010022E-1,-1.726486E-2,-1.1520233E-2,3.22996E-2],"categories":[],"categories_nodes":[],"categories_segments":[],"categories_sizes":[],"default_left":[0,0,0,0,0],"id":65,"left_children":[1,3,-1,-1,-1],"loss_changes":[1.7780305E0,2.778472E0,0E0,0E0,0E0],"parents":[2147483647,0,0,1,1],"right_children":[2,4,-1,-1,-1],"split_conditions":[4.8658377E-1,-1.0125486E-1,-1.726486E-2,-1.1520233E-2,3.22996E-2],"split_indices":[31,8,0,0,0],"split_type":[0,0,0,0,0],"sum_hessian":[2.209035E1,1.2481543E1,9.608807E0,6.4682403E0,6.0133023E0],"tree_param":{"num_deleted":"0","num_feature":"45","num_nodes":"5","size_leaf_vector":"1"}},{"base_weights":[-5.4463867E-2,1.4016092E-1,-2.1246029E-2,-1.8214531E-2,2.5014848E-2],"categories":[],"categories_nodes":[],"categories_segments":[],"categories_sizes":[],"default_left":[0,0,0,0,0],"id":66,"left_children":[1,3,-1,-1,-1],"loss_changes":[1.7665226E0,3.0729666E0,0E0,0E0,0E0],"parents":[2147483647,0,0,1,1],"right_children":[2,4,-1,-1,-1],"split_conditions":[4.592822E-1,-5.631178E-1,-2.1246029E-2,-1.8214531E-2,2.5014848E-2],"split_indices":[7,40,0,0,0],"split_type":[0,0,0,0,0],"sum_hessian":[2.2279999E1,1.4836924E1,7.4430757E0,6.059717E0,8.777206E0],"tree_param":{"num_deleted":"0","num_feature":"45","num_nodes":"5","size_leaf_vector":"1"}},{"base_weights":[-5.276395E-2,3.1070799E-2,-2.9136902E-1,-3.0372621E-2,-3.8065966E-2,2.1465784E-2,-2.2114811E-2],"categories":[],"categories_nodes":[],"categories_segments":[],"categories_sizes":[],"default_left":[0,0,0,0,0,0,0],"id":67,"left_children":[1,-1,3,5,-1,-1,-1],"loss_changes":[3.9919689E0,0E0,2.1594176E0,2.659212E0,0E0,0E0,0E0],"parents":[2147483647,0,0,2,2,3,3],"right_children":[2,-1,4,6,-1,-1,-1],"split_conditions":[-4.8884916E-1,3.1070799E-2,4.510501E-1,2.4076584E-1,-3.8065966E-2,2.1465784E-2,-2.2114811E-2],"split_indices":[24,0,26,6,0,0,0],"split_type":[0,0,0,0,0,0,0],"sum_hessian":[2.2895601E1,5.4560447E0,1.7439556E1,1.2033774E1,5.405782E0,5.5524755E0,6.481299E0],"tree_param":{"num_deleted":"0","num_feature":"45","num_nodes":"7","size_leaf_vector":"1"}},{"base_weights":[-0E0,-2.4769416E-2,1.6864365E-1,3.9687115E-1,-1.4774553E-2,-1.5112484E-3,4.3123662E-2],"categories":[],"categories_nodes":[],"categories_segments":[],"categories_sizes":[],"default_left":[0,0,0,0,0,0,0],"id":68,"left_children":[1,-1,3,5,-1,-1,-1],"loss_changes":[1.976801E0,0E0,1.9916593E0,2.5689664E0,0E0,0E0,0E0],"parents":[2147483647,0,0,2,2,3,3],"right_children":[2,-1,4,6,-1,-1,-1],"split_conditions":[-8.9644134E-1,-2.4769416E-2,4.592822E-1,-2.886413E-1,-1.4774553E-2,-1.5112484E-3,4.3123662E-2],"split_indices":[40,0,7,6,0,0,0],"split_type":[0,0,0,0,0,0,0],"sum_hessian":[2.1614695E1,5.0155306E0,1.6599163E1,1.1369065E1,5.230098E0,6.305421E0,5.063645E0],"tree_param":{"num_deleted":"0","num_feature":"45","num_nodes":"7","size_leaf_vector":"1"}},{"base_weights":[-4.503072E-2,1.2835443E-1,-2.6450712E-2,-2.0131904E-1,3.8051967E-2,-2.51424E-2,7.0848684E-3],"categories":[],"categories_nodes":[],"categories_segments":[],"categories_sizes":[],"default_left":[0,0,0,0,0,0,0],"id":69,"left_children":[1,3,-1,5,-1,-1,-1],"loss_changes":[1.9787048E0,3.7687533E0,0E0,1.3388468E0,0E0,0E0,0E0],"parents":[2147483647,0,0,1,1,3,3],"right_children":[2,4,-1,6,-1,-1,-1],"split_conditions":[7.897834E-1,-3.539808E-1,-2.6450712E-2,-5.2461535E-1,3.8051967E-2,-2.51424E-2,7.0848684E-3],"split_indices":[27,22,0,13,0,0,0],"split_type":[0,0,0,0,0,0,0],"sum_hessian":[2.1293098E1,1.6065775E1,5.227323E0,1.0906477E1,5.159299E0,5.7114196E0,5.195057E0],"tree_param":{"num_deleted":"0","num_feature":"45","num_nodes":"7","size_leaf_vector":"1"}},{"base_weights":[-3.4389615E-2,-2.103997E-1,2.3986218E-2,6.332391E-2,-2.9301247E-2,-2.3978226E-2,3.027901E-2],"categories":[],"categories_nodes":[],"categories_segments":[],"categories_sizes":[],"default_left":[0,0,0,0,0,0,0],"id":70,"left_children":[1,3,-1,5,-1,-1,-1],"loss_changes":[2.1469634E0,1.9304118E0,0E0,3.57256E0,0E0,0E0,0E0],"parents":[2147483647,0,0,1,1,3,3],"right_children":[2,4,-1,6,-1,-1,-1],"split_conditions":[8.728258E-2,-3.2339245E-1,2.3986218E-2,-7.113179E-1,-2.9301247E-2,-2.3978226E-2,3.027901E-2],"split_indices":[43,43,0,15,0,0,0],"split_type":[0,0,0,0,0,0,0],"sum_hessian":[2.1908379E1,1.6905827E1,5.002552E0,1.0106365E1,6.799462E0,5.015858E0,5.090507E0],"tree_param":{"num_deleted":"0","num_feature":"45","num_nodes":"7","size_leaf_vector":"1"}},{"base_weights":[-9.600802E-3,1.8481782E-1,-2.722325E-2,-1.4766242E-1,3.9512914E-2,-2.0691814E-2,7.2387867E-3],"categories":[],"categories_nodes":[],"categories_segments":[],"categories_sizes":[],"default_left":[0,0,0,0,0,0,0],"id":71,"left_children":[1,3,-1,5,-1,-1,-1],"loss_changes":[2.4695938E0,3.6158478E0,0E0,1.0015004E0,0E0,0E0,0E0],"parents":[2147483647,0,0,1,1,3,3],"right_children":[2,4,-1,6,-1,-1,-1],"split_conditions":[7.897834E-1,3.5584182E-1,-2.722325E-2,-5.0707716E-1,3.9512914E-2,-2.0691814E-2,7.2387867E-3],"split_indices":[27,11,0,1,0,0,0],"split_type":[0,0,0,0,0,0,0],"sum_hessian":[2.1435396E1,1.6063826E1,5.37157E0,1.07508745E1,5.312951E0,5.5898685E0,5.1610055E0],"tree_param":{"num_deleted":"0","num_feature":"45","num_nodes":"7","size_leaf_vector":"1"}},{"base_weights":[1.061204E-1,-1.7415506E-1,3.3460148E-2,-2.0934442E-2,9.897909E-3],"categories":[],"categories_nodes":[],"categories_segments":[],"categories_sizes":[],"default_left":[0,0,0,0,0],"id":72,"left_children":[1,3,-1,-1,-1],"loss_changes":[3.5165117E0,1.4561682E0,0E0,0E0,0E0],"parents":[2147483647,0,0,1,1],"right_children":[2,4,-1,-1,-1],"split_conditions":[7.1772826E-1,-4.4088906E-1,3.3460148E-2,-2.0934442E-2,9.897909E-3],"split_indices":[19,13,0,0,0],"split_type":[0,0,0,0,0],"sum_hessian":[2.0229881E1,1.3849422E1,6.3804603E0,8.444016E0,5.4054055E0],"tree_param":{"num_deleted":"0","num_feature":"45","num_nodes":"5","size_leaf_vector":"1"}},{"base_weights":[-5.740208E-2,2.0732732E-1,-2.0088678E-2,-7.1106004E-3,2.7871145E-2],"categories":[],"categories_nodes":[],"categories_segments":[],"categories_sizes":[],"default_left":[0,0,0,0,0],"id":73,"left_children":[1,3,-1,-1,-1],"loss_changes":[2.188198E0,1.7640976E0,0E0,0E0,0E0],"parents":[2147483647,0,0,1,1],"right_children":[2,4,-1,-1,-1],"split_conditions":[5.143242E-1,-3.8999894E-1,-2.0088678E-2,-7.1106004E-3,2.7871145E-2],"split_indices":[31,2,0,0,0],"split_type":[0,0,0,0,0],"sum_hessian":[2.1875546E1,1.2428742E1,9.446803E0,6.373512E0,6.0552306E0],"tree_param":{"num_deleted":"0","num_feature":"45","num_nodes":"5","size_leaf_vector":"1"}},{"base_weights":[-2.3347262E-2,1.4500168E-1,-2.46565E-2,3.4030754E-2,-1.4860756E-2],"categories":[],"categories_nodes":[],"categories_segments":[],"categories_sizes":[],"default_left":[0,0,0,0,0],"id":74,"left_children":[1,3,-1,-1,-1],"loss_changes":[1.8242486E0,4.1742144E0,0E0,0E0,0E0],"parents":[2147483647,0,0,1,1],"right_children":[2,4,-1,-1,-1],"split_conditions":[7.926122E-1,3.41955E-1,-2.46565E-2,3.4030754E-2,-1.4860756E-2],"split_indices":[27,31,0,0,0],"split_type":[0,0,0,0,0],"sum_hessian":[2.0721924E1,1.560741E1,5.1145134E0,6.916805E0,8.690605E0],"tree_param":{"num_deleted":"0","num_feature":"45","num_nodes":"5","size_leaf_vector":"1"}},{"base_weights":[7.263542E-3,-1.9939944E-1,1.9623693E-2,-0E0,-2.5361106E-2],"categories":[],"categories_nodes":[],"categories_segments":[],"categories_sizes":[],"default_left":[0,0,0,0,0],"id":75,"left_children":[1,3,-1,-1,-1],"loss_changes":[1.9147964E0,9.4285715E-1,0E0,0E0,0E0],"parents":[2147483647,0,0,1,1],"right_children":[2,4,-1,-1,-1],"split_conditions":[7.1772826E-1,6.534861E-1,1.9623693E-2,-0E0,-2.5361106E-2],"split_indices":[19,36,0,0,0],"split_type":[0,0,0,0,0],"sum_hessian":[2.1827024E1,1.4350717E1,7.4763083E0,9.313565E0,5.0371513E0],"tree_param":{"num_deleted":"0","num_feature":"45","num_nodes":"5","size_leaf_vector":"1"}},{"base_weights":[2.8793446E-3,-1.9084677E-2,2.1281421E-1,2.907342E-2,-4.9694492E-3],"categories":[],"categories_nodes":[],"categories_segments":[],"categories_sizes":[],"default_left":[0,0,0,0,0],"id":76,"left_children":[1,-1,3,-1,-1],"loss_changes":[1.7920537E0,0E0,1.7925105E0,0E0,0E0],"parents":[2147483647,0,0,2,2],"right_children":[2,-1,4,-1,-1],"split_conditions":[-7.352154E-1,-1.9084677E-2,3.2104012E-1,2.907342E-2,-4.9694492E-3],"split_indices":[13,0,33,0,0],"split_type":[0,0,0,0,0],"sum_hessian":[2.0399717E1,6.7465115E0,1.3653206E1,6.011992E0,7.6412134E0],"tree_param":{"num_deleted":"0","num_feature":"45","num_nodes":"5","size_leaf_vector":"1"}},{"base_weights":[-4.1858383E-2,-2.3079215E-1,1.9616565E-2,-4.1399003E-4,-2.7194455E-2],"categories":[],"categories_nodes":[],"categories_segments":[],"categories_sizes":[],"default_left":[0,0,0,0,0],"id":77,"left_children":[1,3,-1,-1,-1],"loss_changes":[1.9547356E0,1.1080457E0,0E0,0E0,0E0],"parents":[2147483647,0,0,1,1],"right_children":[2,4,-1,-1,-1],"split_conditions":[-1.7258236E-1,5.137563E-1,1.9616565E-2,-4.1399003E-4,-2.7194455E-2],"split_indices":[40,34,0,0,0],"split_type":[0,0,0,0,0],"sum_hessian":[2.1921757E1,1.5761881E1,6.159875E0,1.0000524E1,5.7613573E0],"tree_param":{"num_deleted":"0","num_feature":"45","num_nodes":"5","size_leaf_vector":"1"}},{"base_weights":[-8.349916E-2,-2.932345E-2,1.0757678E-1,3.6535314E-1,-1.8640067E-2,-3.4127582E-3,3.6529418E-2],"categories":[],"categories_nodes":[],"categories_segments":[],"categories_sizes":[],"default_left":[0,0,0,0,0,0,0],"id":78,"left_children":[1,-1,3,5,-1,-1,-1],"loss_changes":[2.2368267E0,0E0,2.207271E0,1.9419066E0,0E0,0E0,0E0],"parents":[2147483647,0,0,2,2,3,3],"right_children":[2,-1,4,6,-1,-1,-1],"split_conditions":[-1.5378119E0,-2.932345E-2,4.7237718E-1,-3.3045143E-1,-1.8640067E-2,-3.4127582E-3,3.6529418E-2],"split_indices":[11,0,14,18,0,0,0],"split_type":[0,0,0,0,0,0,0],"sum_hessian":[2.1119946E1,5.388867E0,1.5731078E1,1.0528813E1,5.202265E0,5.060407E0,5.468406E0],"tree_param":{"num_deleted":"0","num_feature":"45","num_nodes":"7","size_leaf_vector":"1"}},{"base_weights":[-8.584149E-3,-1.9113926E-2,1.6321068E-1,-1.804901E-2,2.2811433E-2],"categories":[],"categories_nodes":[],"categories_segments":[],"categories_sizes":[],"default_left":[0,0,0,0,0],"id":79,"left_children":[1,-1,3,-1,-1],"loss_changes":[1.5013089E0,0E0,2.5762227E0,0E0,0E0],"parents":[2147483647,0,0,2,2],"right_children":[2,-1,4,-1,-1],"split_conditions":[-8.3861357E-1,-1.9113926E-2,-3.2877913E-1,-1.804901E-2,2.2811433E-2],"split_indices":[1,0,9,0,0],"split_type":[0,0,0,0,0],"sum_hessian":[2.1072237E1,6.4338903E0,1.4638347E1,5.043186E0,9.5951605E0],"tree_param":{"num_deleted":"0","num_feature":"45","num_nodes":"5","size_leaf_vector":"1"}},{"base_weights":[-0E0,2.4036019E-1,-1.313338E-2,-2.5510357E-3,2.6296038E-2],"categories":[],"categories_nodes":[],"categories_segments":[],"categories_sizes":[],"default_left":[0,0,0,0,0],"id":80,"left_children":[1,3,-1,-1,-1],"loss_changes":[1.4106473E0,1.0597467E0,0E0,0E0,0E0],"parents":[2147483647,0,0,1,1],"right_children":[2,4,-1,-1,-1],"split_conditions":[5.179565E-1,-5.0707716E-1,-1.313338E-2,-2.5510357E-3,2.6296038E-2],"split_indices":[38,1,0,0,0],"split_type":[0,0,0,0,0],"sum_hessian":[2.0372019E1,1.0843055E1,9.528965E0,5.6000285E0,5.243026E0],"tree_param":{"num_deleted":"0","num_feature":"45","num_nodes":"5","size_leaf_vector":"1"}},{"base_weights":[-9.595917E-2,-2.4566162E-1,1.7036555E-2,9.27314E-3,-4.9558806E-1,-8.164647E-3,-3.5452213E-2],"categories":[],"categories_nodes":[],"categories_segments":[],"categories_sizes":[],"default_left":[0,0,0,0,0,0,0],"id":81,"left_children":[1,3,-1,-1,5,-1,-1],"loss_changes":[1.5677631E0,2.0371594E0,0E0,0E0,6.2440825E-1,0E0,0E0],"parents":[2147483647,0,0,1,1,4,4],"right_children":[2,4,-1,-1,6,-1,-1],"split_conditions":[1.7338914E-1,-4.9409112E-1,1.7036555E-2,9.27314E-3,2.7003765E-2,-8.164647E-3,-3.5452213E-2],"split_indices":[24,24,0,0,11,0,0],"split_type":[0,0,0,0,0,0,0],"sum_hessian":[2.1846615E1,1.6765612E1,5.081003E0,6.100328E0,1.0665284E1,5.045008E0,5.6202755E0],"tree_param":{"num_deleted":"0","num_feature":"45","num_nodes":"7","size_leaf_vector":"1"}},{"base_weights":[1.8373424E-2,-2.3862667E-2,2.0643984E-1,-3.3938412E-3,2.9306013E-2],"categories":[],"categories_nodes":[],"categories_segments":[],"categories_sizes":[],"default_left":[0,0,0,0,0],"id":82,"left_children":[1,-1,3,-1,-1],"loss_changes":[2.096824E0,0E0,1.8201534E0,0E0,0E0],"parents":[2147483647,0,0,2,2],"right_children":[2,-1,4,-1,-1],"split_conditions":[-1.5151334E0,-2.3862667E-2,-4.9835265E-2,-3.3938412E-3,2.9306013E-2],"split_indices":[11,0,27,0,0],"split_type":[0,0,0,0,0],"sum_hessian":[2.0729052E1,5.132787E0,1.5596264E1,9.378328E0,6.2179356E0],"tree_param":{"num_deleted":"0","num_feature":"45","num_nodes":"5","size_leaf_vector":"1"}},{"base_weights":[-2.4993286E-2,2.1181129E-2,-1.9388403E-1,1.0172783E-2,-2.288269E-2],"categories":[],"categories_nodes":[],"categories_segments":[],"categories_sizes":[],"default_left":[0,0,0,0,0],"id":83,"left_children":[1,-1,3,-1,-1],"loss_changes":[1.7685614E0,0E0,1.9252474E0,0E0,0E0],"parents":[2147483647,0,0,2,2],"right_children":[2,-1,4,-1,-1],"split_conditions":[-4.9409112E-1,2.1181129E-2,1.8528105E-1,1.0172783E-2,-2.288269E-2],"split_indices":[24,0,30,0,0],"split_type":[0,0,0,0,0],"sum_hessian":[2.1561274E1,5.3226438E0,1.623863E1,6.418867E0,9.819763E0],"tree_param":{"num_deleted":"0","num_feature":"45","num_nodes":"5","size_leaf_vector":"1"}},{"base_weights":[-5.9437584E-2,-2.684191E-1,1.7753843E-2,7.981464E-3,-2.5379911E-2],"categories":[],"categories_nodes":[],"categories_segments":[],"categories_sizes":[],"default_left":[0,0,0,0,0],"id":84,"left_children":[1,3,-1,-1,-1],"loss_changes":[2.00793E0,1.7001666E0,0E0,0E0,0E0],"parents":[2147483647,0,0,1,1],"right_children":[2,4,-1,-1,-1],"split_conditions":[7.1772826E-1,-3.616023E-1,1.7753843E-2,7.981464E-3,-2.5379911E-2],"split_indices":[19,28,0,0,0],"split_type":[0,0,0,0,0],"sum_hessian":[2.1179136E1,1.447508E1,6.7040577E0,5.1581907E0,9.316889E0],"tree_param":{"num_deleted":"0","num_feature":"45","num_nodes":"5","size_leaf_vector":"1"}},{"base_weights":[-9.387833E-2,-3.0068412E-1,9.046817E-3,3.2023832E-3,-2.8504157E-2],"categories":[],"categories_nodes":[],"categories_segments":[],"categories_sizes":[],"default_left":[0,0,0,0,0],"id":85,"left_children":[1,3,-1,-1,-1],"loss_changes":[1.2782881E0,1.3399926E0,0E0,0E0,0E0],"parents":[2147483647,0,0,1,1],"right_children":[2,4,-1,-1,-1],"split_conditions":[-1.13887325E-1,-4.8631766E-1,9.046817E-3,3.2023832E-3,-2.8504157E-2],"split_indices":[3,3,0,0,0],"split_type":[0,0,0,0,0],"sum_hessian":[2.0323929E1,1.1750838E1,8.573091E0,5.158266E0,6.592572E0],"tree_param":{"num_deleted":"0","num_feature":"45","num_nodes":"5","size_leaf_vector":"1"}},{"base_weights":[3.155312E-2,2.8415782E-2,-1.7226663E-1,-2.7154196E-2,4.586781E-3],"categories":[],"categories_nodes":[],"categories_segments":[],"categories_sizes":[],"default_left":[0,0,0,0,0],"id":86,"left_children":[1,-1,3,-1,-1],"loss_changes":[2.531646E0,0E0,1.7095962E0,0E0,0E0],"parents":[2147483647,0,0,2,2],"right_children":[2,-1,4,-1,-1],"split_conditions":[-5.0108045E-1,2.8415782E-2,-2.2849688E-1,-2.7154196E-2,4.586781E-3],"split_indices":[24,0,24,0,0],"split_type":[0,0,0,0,0],"sum_hessian":[2.088371E1,5.390376E0,1.5493334E1,6.161111E0,9.332223E0],"tree_param":{"num_deleted":"0","num_feature":"45","num_nodes":"5","size_leaf_vector":"1"}},{"base_weights":[-4.035021E-2,-2.4667871E-1,1.3549228E-2,-2.5142476E-2,2.1296858E-3],"categories":[],"categories_nodes":[],"categories_segments":[],"categories_sizes":[],"default_left":[0,0,0,0,0],"id":87,"left_children":[1,3,-1,-1,-1],"loss_changes":[1.4960828E0,1.1138312E0,0E0,0E0,0E0],"parents":[2147483647,0,0,1,1],"right_children":[2,4,-1,-1,-1],"split_conditions":[-3.7565416E-1,-5.826836E-1,1.3549228E-2,-2.5142476E-2,2.1296858E-3],"split_indices":[13,1,0,0,0],"split_type":[0,0,0,0,0],"sum_hessian":[2.1287186E1,1.3120686E1,8.1665E0,6.7502446E0,6.370441E0],"tree_param":{"num_deleted":"0","num_feature":"45","num_nodes":"5","size_leaf_vector":"1"}},{"base_weights":[3.648035E-2,2.6586577E-2,-1.5177797E-1,4.3972507E-3,-2.6565209E-2],"categories":[],"categories_nodes":[],"categories_segments":[],"categories_sizes":[],"default_left":[0,0,0,0,0],"id":88,"left_children":[1,-1,3,-1,-1],"loss_changes":[2.038893E0,0E0,1.506209E0,0E0,0E0],"parents":[2147483647,0,0,2,2],"right_children":[2,-1,4,-1,-1],"split_conditions":[-4.9409112E-1,2.6586577E-2,3.0285037E-1,4.3972507E-3,-2.6565209E-2],"split_indices":[24,0,10,0,0],"split_type":[0,0,0,0,0],"sum_hessian":[1.9595156E1,5.0408626E0,1.4554293E1,9.229429E0,5.324863E0],"tree_param":{"num_deleted":"0","num_feature":"45","num_nodes":"5","size_leaf_vector":"1"}},{"base_weights":[-3.308245E-2,1.4384344E-1,-2.2248203E-2,-1.2259916E-2,2.2190986E-2],"categories":[],"categories_nodes":[],"categories_segments":[],"categories_sizes":[],"default_left":[0,0,0,0,0],"id":89,"left_children":[1,3,-1,-1,-1],"loss_changes":[1.7308769E0,2.0306535E0,0E0,0E0,0E0],"parents":[2147483647,0,0,1,1],"right_children":[2,4,-1,-1,-1],"split_conditions":[8.400367E-1,-2.3621126E-1,-2.2248203E-2,-1.2259916E-2,2.2190986E-2],"split_indices":[31,6,0,0,0],"split_type":[0,0,0,0,0],"sum_hessian":[2.1460588E1,1.52974615E1,6.1631274E0,6.59439E0,8.703072E0],"tree_param":{"num_deleted":"0","num_feature":"45","num_nodes":"5","size_leaf_vector":"1"}},{"base_weights":[3.4713783E-4,1.9182986E-2,-1.5214653E-1,-2.3150533E-2,1.7888553E-2],"categories":[],"categories_nodes":[],"categories_segments":[],"categories_sizes":[],"default_left":[0,0,0,0,0],"id":90,"left_children":[1,-1,3,-1,-1],"loss_changes":[1.2892443E0,0E0,2.6031225E0,0E0,0E0],"parents":[2147483647,0,0,2,2],"right_children":[2,-1,4,-1,-1],"split_conditions":[-5.0108045E-1,1.9182986E-2,1.1223282E-1,-2.3150533E-2,1.7888553E-2],"split_indices":[24,0,24,0,0],"split_type":[0,0,0,0,0],"sum_hessian":[1.9661484E1,5.350975E0,1.4310509E1,9.069509E0,5.2409997E0],"tree_param":{"num_deleted":"0","num_feature":"45","num_nodes":"5","size_leaf_vector":"1"}},{"base_weights":[-4.730535E-2,-2.913568E-1,1.5185072E-2,-2.9078439E-2,-0E0],"categories":[],"categories_nodes":[],"categories_segments":[],"categories_sizes":[],"default_left":[0,0,0,0,0],"id":91,"left_children":[1,3,-1,-1,-1],"loss_changes":[1.9650745E0,1.1774315E0,0E0,0E0,0E0],"parents":[2147483647,0,0,1,1],"right_children":[2,4,-1,-1,-1],"split_conditions":[-9.497085E-2,-6.117605E-1,1.5185072E-2,-2.9078439E-2,-0E0],"split_indices":[3,1,0,0,0],"split_type":[0,0,0,0,0],"sum_hessian":[2.0920872E1,1.260888E1,8.311993E0,5.8968644E0,6.7120156E0],"tree_param":{"num_deleted":"0","num_feature":"45","num_nodes":"5","size_leaf_vector":"1"}},{"base_weights":[-5.8547646E-2,-2.5912607E-1,1.7853305E-2,-3.7355974E-6,-2.5116542E-2],"categories":[],"categories_nodes":[],"categories_segments":[],"categories_sizes":[],"default_left":[0,0,0,0,0],"id":92,"left_children":[1,3,-1,-1,-1],"loss_changes":[1.9104642E0,9.281421E-1,0E0,0E0,0E0],"parents":[2147483647,0,0,1,1],"right_children":[2,4,-1,-1,-1],"split_conditions":[7.1772826E-1,2.4076584E-1,1.7853305E-2,-3.7355974E-6,-2.5116542E-2],"split_indices":[19,6,0,0,0],"split_type":[0,0,0,0,0],"sum_hessian":[2.092495E1,1.4529857E1,6.3950925E0,7.7191887E0,6.810668E0],"tree_param":{"num_deleted":"0","num_feature":"45","num_nodes":"5","size_leaf_vector":"1"}},{"base_weights":[-7.1676664E-2,-2.5078768E-1,1.3793926E-2,-2.8312791E-2,-0E0],"categories":[],"categories_nodes":[],"categories_segments":[],"categories_sizes":[],"default_left":[0,0,0,0,0],"id":93,"left_children":[1,3,-1,-1,-1],"loss_changes":[1.3616245E0,1.0982662E0,0E0,0E0,0E0],"parents":[2147483647,0,0,1,1],"right_children":[2,4,-1,-1,-1],"split_conditions":[7.1772826E-1,-9.1131344E-2,1.3793926E-2,-2.8312791E-2,-0E0],"split_indices":[19,35,0,0,0],"split_type":[0,0,0,0,0],"sum_hessian":[1.9802034E1,1.3441279E1,6.360756E0,5.25782E0,8.183459E0],"tree_param":{"num_deleted":"0","num_feature":"45","num_nodes":"5","size_leaf_vector":"1"}},{"base_weights":[2.0171668E-2,1.6726598E-1,-1.5295774E-2,-1.0967034E-2,2.5354285E-2],"categories":[],"categories_nodes":[],"categories_segments":[],"categories_sizes":[],"default_left":[0,0,0,0,0],"id":94,"left_children":[1,3,-1,-1,-1],"loss_changes":[1.0764929E0,2.2142007E0,0E0,0E0,0E0],"parents":[2147483647,0,0,1,1],"right_children":[2,4,-1,-1,-1],"split_conditions":[7.022537E-1,-7.802501E-2,-1.5295774E-2,-1.0967034E-2,2.5354285E-2],"split_indices":[36,35,0,0,0],"split_type":[0,0,0,0,0],"sum_hessian":[2.0665306E1,1.478822E1,5.877085E0,6.946069E0,7.842151E0],"tree_param":{"num_deleted":"0","num_feature":"45","num_nodes":"5","size_leaf_vector":"1"}},{"base_weights":[2.4337968E-2,-1.4009671E-2,2.3053057E-1,2.7926212E-2,-4.1871774E-3],"categories":[],"categories_nodes":[],"categories_segments":[],"categories_sizes":[],"default_left":[0,0,0,0,0],"id":95,"left_children":[1,-1,3,-1,-1],"loss_changes":[1.3667119E0,0E0,1.4504216E0,0E0,0E0],"parents":[2147483647,0,0,2,2],"right_children":[2,-1,4,-1,-1],"split_conditions":[-2.3621126E-1,-1.4009671E-2,3.954036E-1,2.7926212E-2,-4.1871774E-3],"split_indices":[6,0,31,0,0],"split_type":[0,0,0,0,0],"sum_hessian":[1.9816067E1,7.659569E0,1.2156497E1,5.7238154E0,6.432682E0],"tree_param":{"num_deleted":"0","num_feature":"45","num_nodes":"5","size_leaf_vector":"1"}},{"base_weights":[-2.4048153E-2,1.7631695E-1,-1.5466362E-2,-9.271243E-3,2.1450123E-2],"categories":[],"categories_nodes":[],"categories_segments":[],"categories_sizes":[],"default_left":[0,0,0,0,0],"id":96,"left_children":[1,3,-1,-1,-1],"loss_changes":[1.3243659E0,1.3236523E0,0E0,0E0,0E0],"parents":[2147483647,0,0,1,1],"right_children":[2,4,-1,-1,-1],"split_conditions":[5.143242E-1,-2.7479795E-1,-1.5466362E-2,-9.271243E-3,2.1450123E-2],"split_indices":[31,36,0,0,0],"split_type":[0,0,0,0,0],"sum_hessian":[2.0982609E1,1.2344143E1,8.638465E0,5.02329E0,7.320853E0],"tree_param":{"num_deleted":"0","num_feature":"45","num_nodes":"5","size_leaf_vector":"1"}},{"base_weights":[-1.00826435E-2,1.6203772E-1,-2.441654E-2,-7.639804E-3,3.1403024E-2],"categories":[],"categories_nodes":[],"categories_segments":[],"categories_sizes":[],"default_left":[0,0,0,0,0],"id":97,"left_children":[1,3,-1,-1,-1],"loss_changes":[1.9129053E0,2.591826E0,0E0,0E0,0E0],"parents":[2147483647,0,0,1,1],"right_children":[2,4,-1,-1,-1],"split_conditions":[7.897834E-1,-3.68848E-1,-2.441654E-2,-7.639804E-3,3.1403024E-2],"split_indices":[27,27,0,0,0],"split_type":[0,0,0,0,0],"sum_hessian":[2.0880835E1,1.5687154E1,5.193681E0,9.635313E0,6.051841E0],"tree_param":{"num_deleted":"0","num_feature":"45","num_nodes":"5","size_leaf_vector":"1"}}]},"name":"gbtree"},"learner_model_param":{"base_score":"[5E-1]","boost_from_average":"1","num_class":"0","num_feature":"45","num_target":"1"},"objective":{"name":"binary:logistic","reg_loss_param":{"scale_pos_weight":"0.174334139"}}},"version":[3,2,0]}